tree
version=v4
num_class=1
num_tree_per_iteration=1
label_index=0
max_feature_idx=9
objective=binary sigmoid:1
feature_names=hour day_of_week season near_emergency_lag1 capacity_margin_lag24 lmp_volatility_lag6 region_stress_ratio_lag24 region_stress_ratio_lag48 lmp_volatility_roll24 region_stress_ratio_roll48
feature_infos=[0:23] [0:6] none none [-4.4508980636316586:3.4390219326235147] [0.83855154763024109:8.487292529370988] [48.017176916233197:51.905499663625783] [46.333233692944553:51.905499663625783] [1.099263600877838:7.902679061874804] [47.530042172820941:51.492126756726584]
tree_sizes=1339 1487 1486 1485 1597 1694 1685 1804 1806 1699 1810 1697 1800 1696 1802 1699 1804 1802 1809 1802 1806 1799 1806 1807 1803 1806 1807 1804 1802 1797 1807 1808 1806 1810 1691 1800 1696 1807 1804 1705 1806 1696 1699 1694 1808 1806 1698 1703 1593 1702

Tree=0
num_leaves=12
num_cat=0
split_feature=4 4 0 0 7 8 5 4 0 0 0
split_gain=196.093 20.7006 16.3584 12.2668 8.60351 5.48445 2.37086 0.139531 0.131929 1.42109e-14 1.42109e-14
threshold=-0.19174476285584691 1.1969575557837298 8.5000000000000018 17.500000000000004 49.921823881447388 1.8243905864775238 6.1710085988831365 1.6102476225902771 6.5000000000000009 4.5000000000000009 20.500000000000004
decision_type=2 2 2 2 2 2 2 2 2 2 2
left_child=2 4 8 -4 -2 -6 7 -3 9 -1 -9
right_child=1 6 3 -5 5 -7 -8 10 -10 -11 -12
leaf_value=0.20361955332385429 0.17047952284360421 0.16510900407012497 0.18034394663203984 0.20025752124614776 0.17739570311774336 0.19209258620028904 0.1713440453778716 0.16327516839137593 0.20200577792655516 0.20361955332385429 0.16327516839137593
leaf_weight=19.829276800155643 6.9402468800544765 5.4530511200428071 6.4445149600505811 5.9487830400466919 4.9573192000389081 5.2051851600408554 4.957319200038909 7.188112840056422 6.1966490000486365 7.931710720062255 10.162504360079764
leaf_count=80 28 22 26 24 20 21 20 29 25 32 41
internal_value=0.185311 0.170408 0.199736 0.189902 0.179062 0.184923 0.165076 0.163714 0.203325 0.20362 0.163275
internal_weight=0 44.8637 46.3509 12.3933 17.1028 10.1625 27.761 22.8037 33.9576 27.761 17.3506
internal_count=368 181 187 50 69 41 112 92 137 112 70
is_linear=0
shrinkage=1


Tree=1
num_leaves=13
num_cat=0
split_feature=4 4 0 0 7 8 5 9 0 4 0 5
split_gain=192.196 20.2152 16.0905 12.0396 8.41612 5.37462 2.31262 0.13932 0.129993 1.11707e-05 2.84217e-14 7.10543e-15
threshold=-0.19174476285584691 1.1969575557837298 8.5000000000000018 17.500000000000004 49.921823881447388 1.8243905864775238 6.1710085988831365 51.362512165903333 6.5000000000000009 1.9533214991233898 1.5000000000000002 2.1435960065421984
decision_type=2 2 2 2 2 2 2 2 2 2 2 2
left_child=2 4 8 -4 -2 -6 7 9 10 -3 -1 -11
right_child=1 6 3 -5 5 -7 -8 -9 -10 11 -12 -13
leaf_value=0.018157727138125287 -0.014663851500173315 -0.021791098686232344 -0.0049152408865192612 0.014818335647282851 -0.0078306029335487391 0.0067179811516067727 -0.013810129479552768 -0.019948127249074514 0.01655452453538428 -0.021773605211504982 0.018157727138125298 -0.021773605211504978
leaf_weight=7.917647838592532 6.9493846893310574 5.2145311981439688 6.4474338591098768 5.9402450323104858 4.9608689546585065 5.2018656581640244 4.9634802341461173 5.4633199721574774 6.1866711825132361 7.2018948793411237 19.794119596481323 4.9668240547180176
leaf_count=32 28 21 26 24 20 21 20 22 25 29 80 20
internal_value=0 -0.0147349 0.0143009 0.00454757 -0.00618306 -0.00038381 -0.019997 -0.0213411 0.0178651 -0.0217789 0.0181577 -0.0217736
internal_weight=0 44.9222 46.2861 12.3877 17.1121 10.1627 27.8101 22.8466 33.8984 17.3833 27.7118 12.1687
internal_count=368 181 187 50 69 41 112 92 137 70 112 49
is_linear=0
shrinkage=0.01


Tree=2
num_leaves=13
num_cat=0
split_feature=4 4 0 0 7 8 5 4 0 9 4 4
split_gain=188.404 19.7504 15.8312 11.8178 8.23419 5.26715 2.2578 0.13593 0.128176 1.13945e-05 4.48566e-11 2.84217e-14
threshold=-0.19174476285584691 1.1969575557837298 8.5000000000000018 17.500000000000004 49.921823881447388 1.8243905864775238 6.1710085988831365 1.6102476225902771 6.5000000000000009 51.325701267569464 2.3672725272243924 -2.0971387415440907
decision_type=2 2 2 2 2 2 2 2 2 2 2 2
left_child=2 4 8 -4 -2 -6 7 -3 11 10 -9 -1
right_child=1 6 3 -5 5 -7 -8 9 -10 -11 -12 -13
leaf_value=0.018010937090249823 -0.014499808040850303 -0.019718215055389735 -0.0048639558044244694 0.01469277235952561 -0.0077470195463870406 0.0066551778554130503 -0.013656468101733555 -0.021519984212406494 0.016417566907967963 -0.021537913794129046 -0.021520022686655427 0.018010937090249816
leaf_weight=18.027419656515121 6.9576838612556484 5.4716888517141404 6.4502458274364454 5.931145191192627 4.9642312526702863 5.1984622925519943 4.9691066145896903 5.2238088548183459 6.175951659679412 4.9745061695575705 7.2138295471668243 9.6310872137546557
leaf_count=73 28 22 26 24 20 21 20 21 25 20 29 39
internal_value=0 -0.0145708 0.0141796 0.00450444 -0.00611823 -0.000379949 -0.0197663 -0.0210931 0.0177201 -0.0215251 -0.02152 0.0180109
internal_weight=0 44.9733 46.2158 12.3814 17.1204 10.1627 27.8529 22.8838 33.8345 17.4121 12.4376 27.6585
internal_count=368 181 187 50 69 41 112 92 137 70 50 112
is_linear=0
shrinkage=0.01


Tree=3
num_leaves=13
num_cat=0
split_feature=4 4 0 0 7 8 5 9 0 4 5 4
split_gain=184.713 19.305 15.5803 11.6012 8.05749 5.16197 2.20618 0.135854 0.126473 4.0011e-05 2.7164e-11 1.42109e-14
threshold=-0.19174476285584691 1.1969575557837298 8.5000000000000018 17.500000000000004 49.921823881447388 1.8243905864775238 6.1710085988831365 51.362512165903333 6.5000000000000009 1.9533214991233898 1.9022802390684357 -2.036203578439344
decision_type=2 2 2 2 2 2 2 2 2 2 2 2
left_child=2 4 8 -4 -2 -6 7 9 11 -3 -11 -1
right_child=1 6 3 -5 5 -7 -8 -9 -10 10 -12 -13
leaf_value=0.01786794481164165 -0.014339306039492263 -0.021307805112772964 -0.0048132857564800822 0.014569652728493103 -0.0076646154741474102 0.0065930653005937733 -0.013505952839577035 -0.019479527396204156 0.016283696049443356 -0.021274729722922447 -0.021274760077791558 0.017867944811641643
leaf_weight=18.483038619160652 6.9651681780815151 5.2302203625440695 6.4529531896114332 5.9215010404586792 4.9674108624458295 5.1949788182973862 4.9742132425308219 5.4793746620416632 6.1645150184631339 4.9820493757724744 7.223970428109169 9.1182990521192568
leaf_count=75 28 21 26 24 20 21 20 22 25 20 29 37
internal_value=0 -0.0144109 0.0140609 0.00446196 -0.00605446 -0.000376138 -0.0195427 -0.020853 0.0175787 -0.0212847 -0.0212747 0.0178679
internal_weight=0 45.0174 46.1403 12.3745 17.1276 10.1624 27.8898 22.9156 33.7659 17.4362 12.206 27.6013
internal_count=368 181 187 50 69 41 112 92 137 70 49 112
is_linear=0
shrinkage=0.01


Tree=4
num_leaves=14
num_cat=0
split_feature=4 4 0 0 7 8 5 4 1 0 9 4 1
split_gain=181.119 18.8779 15.3373 11.3896 7.88583 5.05904 2.15751 0.132803 0.126612 9.91751e-05 4.08814e-05 3.33841e-10 1.42109e-14
threshold=-0.19174476285584691 1.1969575557837298 8.5000000000000018 17.500000000000004 49.921823881447388 1.8243905864775238 6.1710085988831365 1.6102476225902771 5.5000000000000009 6.5000000000000009 51.325701267569464 2.3672725272243924 2.5000000000000004
decision_type=2 2 2 2 2 2 2 2 2 2 2 2 2
left_child=2 4 8 -4 -2 -6 7 -3 9 12 11 -9 -1
right_child=1 6 3 -5 5 -7 -8 10 -10 -11 -12 -13 -14
leaf_value=0.017728609604442457 -0.014182217618357853 -0.019263304670812414 -0.0047632199097617667 0.014448894089894526 -0.0075833624286550053 0.0065316348914999586 -0.013358472771189112 -0.021037320978757684 0.016174257420869538 0.017778189654718286 -0.021071257956994622 -0.021037425814287653 0.017728609604442468
leaf_weight=10.327645003795629 6.9718601703643825 5.485399588942534 6.4555590450763685 5.9113318920135498 4.9704131484031659 5.1914177387952805 4.9788141250610343 5.2372355014085787 6.3942993730306616 4.9219074845314017 4.9870748221874228 7.2323693782091141 12.048919171094893
leaf_count=42 28 22 26 24 20 21 20 21 26 20 20 29 49
internal_value=0 -0.0142549 0.0139448 0.00442011 -0.00599173 -0.000372374 -0.0193256 -0.0206206 0.0174409 0.0177375 -0.0210471 -0.0210374 0.0177286
internal_weight=0 45.0546 46.0597 12.3669 17.1337 10.1618 27.9209 22.9421 33.6928 27.2985 17.4567 12.4696 22.3766
internal_count=368 181 187 50 69 41 112 92 137 111 70 50 91
is_linear=0
shrinkage=0.01


Tree=5
num_leaves=15
num_cat=0
split_feature=4 4 0 0 7 8 5 9 7 0 4 1 7 4
split_gain=177.618 18.4681 15.1018 11.1829 7.71899 4.95829 2.11161 0.132844 0.126528 9.41089e-05 8.0846e-05 1.65891e-06 2.07933e-10 7.10543e-15
threshold=-0.19174476285584691 1.1969575557837298 8.5000000000000018 17.500000000000004 49.921823881447388 1.8243905864775238 6.1710085988831365 51.362512165903333 48.663607321941022 6.5000000000000009 1.9533214991233898 4.5000000000000009 50.552760512467358 -2.1313254625851497
decision_type=2 2 2 2 2 2 2 2 2 2 2 2 2 2
left_child=2 4 8 -4 -2 -6 7 10 -1 11 -3 13 -12 -10
right_child=1 6 3 -5 5 -7 -8 -9 9 -11 12 -13 -14 -15
leaf_value=0.016038783447666342 -0.014028416993237473 -0.020854560078331499 -0.0047137477992457181 0.014330418827903466 -0.007503236148018462 0.0064708728824520514 -0.013213925570687608 -0.019038513507865635 0.017592798833707672 0.017642968326591176 -0.020807653082572344 0.017598704926498909 -0.020807569194312196 0.017592798833707658
leaf_weight=6.379828765988349 6.9777827858924892 5.2411792129278281 6.4580657184123975 5.9006545543670654 4.9732422828674299 5.187782496213913 4.9829238653182975 5.4906493425369254 10.058098301291466 4.910760059952735 7.2390769571065885 6.8696736693382254 4.992468386888504 5.397028356790547
leaf_count=26 28 21 26 24 20 21 20 22 41 20 29 28 20 22
internal_value=0 -0.0141027 0.0138312 0.00437886 -0.00593 -0.000368657 -0.0191149 -0.0203953 0.0173064 0.0176033 -0.0208217 0.0175946 -0.0208076 0.0175928
internal_weight=0 45.0851 45.9741 12.3587 17.1388 10.161 27.9463 22.9634 33.6154 27.2356 17.4727 22.3248 12.2315 15.4551
internal_count=368 181 187 50 69 41 112 92 137 111 70 91 49 63
is_linear=0
shrinkage=0.01


Tree=6
num_leaves=15
num_cat=0
split_feature=4 4 0 0 7 8 5 4 0 9 7 7 4 1
split_gain=174.208 18.0747 14.8736 10.9808 7.5568 4.85968 2.0683 0.130092 0.125808 8.27475e-05 9.42658e-06 5.7551e-07 1.1521e-09 2.89049e-11
threshold=-0.19174476285584691 1.1969575557837298 8.5000000000000018 17.500000000000004 49.921823881447388 1.8243905864775238 6.1710085988831365 1.6102476225902771 6.5000000000000009 51.325701267569464 48.781805185970619 51.425959138411422 2.3672725272243924 3.5000000000000004
decision_type=2 2 2 2 2 2 2 2 2 2 2 2 2 2
left_child=2 4 8 -4 -2 -6 7 -3 10 12 -1 13 -9 -12
right_child=1 6 3 -5 5 -7 -8 9 -10 -11 11 -13 -14 -15
leaf_value=0.01747488715691304 -0.013877788947825643 -0.01883476812513013 -0.0046648608557488935 0.014214151825637913 -0.0074242107606561705 0.0064107679049672977 -0.013072206387396399 -0.02058489985342055 0.015879371009635698 -0.020633168983917108 0.017460388424678827 0.017464242830066114 -0.020585094445189918 0.017460359376546743
leaf_weight=6.8538382351398495 6.9829568862915066 5.4944659173488679 6.4604755342006666 5.88948655128479 4.9759033322334272 5.1840755939483643 4.9865564703941336 5.2457613646984118 6.1238788068294516 4.9952871203422538 10.277865618467333 5.1393176019191733 7.2441428601741791 5.1389298886060706
leaf_count=28 28 22 26 24 20 21 20 21 25 20 42 21 29 21
internal_value=0 -0.0139542 0.01372 0.00433822 -0.00586925 -0.000364986 -0.0189102 -0.020177 0.0171752 -0.0205988 0.0174647 0.0174613 -0.020585 0.0174604
internal_weight=0 45.1091 45.8838 12.35 17.1429 10.16 27.9662 22.9797 33.5338 17.4852 27.41 20.5561 12.4899 15.4168
internal_count=368 181 187 50 69 41 112 92 137 70 112 84 50 63
is_linear=0
shrinkage=0.01


Tree=7
num_leaves=16
num_cat=0
split_feature=4 4 0 0 7 8 5 9 6 0 4 4 8 9 5
split_gain=170.884 17.6966 14.6523 10.7833 7.39907 4.76314 2.02739 0.130237 0.125285 0.000134844 0.000129464 7.90277e-07 1.46012e-06 7.07885e-10 2.41442e-11
threshold=-0.19174476285584691 1.1969575557837298 8.5000000000000018 17.500000000000004 49.921823881447388 1.8243905864775238 6.1710085988831365 51.362512165903333 48.663607321941022 6.5000000000000009 1.9533214991233898 -2.5900812911797684 1.5844249842709648 50.176657377344526 2.1656012688463568
decision_type=2 2 2 2 2 2 2 2 2 2 2 2 2 2 2
left_child=2 4 8 -4 -2 -6 7 10 -1 11 -3 12 -10 -12 -13
right_child=1 6 3 -5 5 -7 -8 -9 9 -11 13 14 -14 -15 -16
leaf_value=0.015782840243704792 -0.013730220243086877 -0.020428729785850079 -0.0046165494935959325 0.014100020569113416 -0.007346264015259384 0.0063513080964876477 -0.012933224900252276 -0.018622651820660259 0.017331251016683865 0.017391005674558646 -0.020369427409331849 0.017331227598688843 0.017338798873264692 -0.020369272716810296 0.01733125601980114
leaf_weight=6.3493669331073752 6.9874045848846462 5.247677683830271 6.4627912044525129 5.8778450489044189 4.9784001708030683 5.1803004741668701 4.9897247552871695 5.4974200129508963 5.125515744090082 4.8874699622392646 7.2476153522729856 6.1018013954162615 5.1263255178928375 4.9983567297458649 5.8577329069375992
leaf_count=26 28 21 26 24 20 21 20 22 21 20 29 25 21 20 24
internal_value=0 -0.0138092 0.0136112 0.00429815 -0.00580946 -0.000361361 -0.0187113 -0.0199653 0.0170472 0.0173435 -0.0203872 0.017333 0.017335 -0.0203694 0.0173312
internal_weight=0 45.1269 45.7888 12.3406 17.1461 10.1587 27.9808 22.9911 33.4482 27.0988 17.4936 22.2114 10.2518 12.246 11.9595
internal_count=368 181 187 50 69 41 112 92 137 111 70 91 42 49 49
is_linear=0
shrinkage=0.01


Tree=8
num_leaves=16
num_cat=0
split_feature=4 4 0 0 7 8 5 4 0 9 6 4 8 4 5
split_gain=167.645 17.3332 14.4376 10.5903 7.24564 4.66865 1.98874 0.12775 0.124925 0.000132704 2.45971e-05 7.49998e-07 1.38571e-06 2.72684e-09 2.34905e-11
threshold=-0.19174476285584691 1.1969575557837298 8.5000000000000018 17.500000000000004 49.921823881447388 1.8243905864775238 6.1710085988831365 1.6102476225902771 6.5000000000000009 51.325701267569464 48.663607321941022 -2.5900812911797684 1.5844249842709648 2.3672725272243924 2.1656012688463568
decision_type=2 2 2 2 2 2 2 2 2 2 2 2 2 2 2
left_child=2 4 8 -4 -2 -6 7 -3 10 13 -1 12 -12 -9 -13
right_child=1 6 3 -5 5 -7 -8 9 -10 -11 11 14 -14 -15 -16
leaf_value=0.017231311417535523 -0.013585604989231481 -0.018430309075353566 -0.0045688039447029658 0.013987957125476661 -0.0072693716027840598 0.0062924848462290409 -0.012796886888606624 -0.020160044866391804 0.015627791927517839 -0.020221178285874931 0.017205286398567693 0.017205263400609253 0.017212649474244574 -0.020160344127187334 0.017205291472851256
leaf_weight=5.1144580543041256 6.9911463260650661 5.4991573840379777 6.4650146663188917 5.8657461404800415 4.9807375669479352 5.176459327340126 4.9924427270889273 5.2496691793203372 6.0936630368232718 4.9993938207626334 5.1114807724952716 6.0850929021835309 5.1123266369104385 7.2495415061712265 5.8416929244995117
leaf_count=21 28 22 26 24 20 21 20 21 25 20 21 25 21 29 24
internal_value=0 -0.0136675 0.0135046 0.00425865 -0.00575058 -0.00035778 -0.0185179 -0.0197598 0.0169222 -0.0201776 0.0172115 0.017207 0.017209 -0.0201602 0.0172053
internal_weight=0 45.1385 45.6895 12.3308 17.1483 10.1572 27.9902 22.9978 33.3587 17.4986 27.2651 22.1506 10.2238 12.4992 11.9268
internal_count=368 181 187 50 69 41 112 92 137 70 112 91 42 50 49
is_linear=0
shrinkage=0.01


Tree=9
num_leaves=15
num_cat=0
split_feature=4 4 0 0 7 8 5 9 1 4 0 9 7 9
split_gain=164.486 16.9836 14.2293 10.4015 7.09635 4.57613 1.95219 0.127987 0.125015 0.000182679 0.000180136 4.91716e-06 1.69027e-09 3.76517e-11
threshold=-0.19174476285584691 1.1969575557837298 8.5000000000000018 17.500000000000004 49.921823881447388 1.8243905864775238 6.1710085988831365 51.362512165903333 5.5000000000000009 1.9533214991233898 6.5000000000000009 49.057751764735876 50.552760512467358 50.569151670356426
decision_type=2 2 2 2 2 2 2 2 2 2 2 2 2 2
left_child=2 4 8 -4 -2 -6 7 9 10 -3 11 -1 -11 -13
right_child=1 6 3 -5 5 -7 -8 -9 -10 12 -12 13 -14 -15
leaf_value=0.017093756902056837 -0.013443841041828331 -0.020027968795847867 -0.004521615770036686 0.013877895156006036 -0.0071935087549839559 0.0062342854557039806 -0.012663103435786811 -0.018229784707104929 0.015533879608621159 -0.01995756187617034 0.017152102161007834 0.017082379113146764 -0.019957322878726085 0.017082349522538908
leaf_weight=4.8554673194885316 6.9942025542259243 5.2499738335609534 6.4671486318111402 5.8532055616378784 4.9829199910163862 5.1725549697875977 4.9947229027748099 5.4999488592147818 6.3156103789806357 7.249967157840727 4.8621554225683203 8.2520409673452395 4.9999770820140839 8.9801558852195722
leaf_count=20 28 21 26 24 20 21 20 22 26 29 20 34 20 37
internal_value=0 -0.0135291 0.0134001 0.0042197 -0.00569261 -0.000354242 -0.0183298 -0.0195604 0.0168002 -0.0199786 0.017097 0.0170849 -0.0199575 0.0170824
internal_weight=0 45.1443 45.5858 12.3204 17.1497 10.1555 27.9946 22.9999 33.2654 17.4999 26.9498 22.0877 12.2499 17.2322
internal_count=368 181 187 50 69 41 112 92 137 70 111 91 49 71
is_linear=0
shrinkage=0.01


Tree=10
num_leaves=16
num_cat=0
split_feature=4 4 0 0 7 8 5 4 7 9 0 1 4 4 5
split_gain=161.405 16.6471 14.0271 10.2169 6.95104 4.48555 1.91763 0.125737 0.125014 0.00018754 0.000168346 8.40544e-06 5.27142e-09 4.22915e-11 2.11386e-12
threshold=-0.19174476285584691 1.1969575557837298 8.5000000000000018 17.500000000000004 49.921823881447388 1.8243905864775238 6.1710085988831365 1.6102476225902771 48.663607321941022 51.325701267569464 6.5000000000000009 4.5000000000000009 2.3672725272243924 -3.3420069133951573 2.3928209761971018
decision_type=2 2 2 2 2 2 2 2 2 2 2 2 2 2 2
left_child=2 4 8 -4 -2 -6 7 -3 -1 12 11 13 -9 -10 -15
right_child=1 6 3 -5 5 -7 -8 9 10 -11 -12 -13 -14 14 -16
leaf_value=0.015412923740030669 -0.013304830598770481 -0.018047891859209641 -0.0044749771032546208 0.013769771345149345 -0.0071186585893707813 0.0061767002743734738 -0.012531793478293285 -0.019760385543202922 0.016962388315341363 -0.019833094864470161 0.017031620530289483 0.016975794962338919 -0.019760801647167807 0.016962418236744818 0.016962427578012165
leaf_weight=6.2976654767990103 6.9965932965278652 5.4997300952673021 6.4691946506500226 5.8402397632598877 4.9849510192871076 5.1685905307531357 4.9965780973434439 5.2492280304431933 5.5656010508537301 4.9996330440044394 4.8481179922819129 6.7778335660696021 7.2489378154277802 4.8396569937467611 4.8396581411361694
leaf_count=26 28 22 26 24 20 21 20 21 23 20 20 28 29 20 20
internal_value=0 -0.0133938 0.0132978 0.00418129 -0.00563551 -0.000350748 -0.0181468 -0.0193668 0.0166811 -0.0197813 0.0169783 0.0169665 -0.0197606 0.0169624 0.0169624
internal_weight=0 45.1442 45.478 12.3094 17.1501 10.1535 27.9941 22.9975 33.1685 17.4978 26.8709 22.0227 12.4982 15.2449 9.67932
internal_count=368 181 187 50 69 41 112 92 137 70 111 91 50 63 40
is_linear=0
shrinkage=0.01


Tree=11
num_leaves=15
num_cat=0
split_feature=4 4 4 0 7 8 5 0 9 4 7 0 7 7
split_gain=158.4 16.323 13.8335 8.93925 6.80957 4.39686 1.88491 0.518908 0.126055 0.000238194 6.35897e-05 1.11342e-05 8.93211e-07 3.2643e-09
threshold=-0.19174476285584691 1.1969575557837298 -1.223611829989713 9.5000000000000018 49.921823881447388 1.8243905864775238 6.1710085988831365 7.5000000000000009 51.362512165903333 1.9533214991233898 48.781805185970619 4.5000000000000009 51.042447040919576 50.552760512467358
decision_type=2 2 2 2 2 2 2 2 2 2 2 2 2 2
left_child=2 4 7 -4 -2 -6 8 10 9 -3 -1 12 -12 -11
right_child=1 6 3 -5 5 -7 -8 -9 -10 13 11 -13 -14 -15
leaf_value=0.016886049866116359 -0.013168480971858692 -0.01965020376818986 0.013567545976968439 -0.004535743182402862 -0.0070447953217352846 0.0061197197060645185 -0.012402876872483726 0.013470618164120275 -0.017857992679850984 -0.019569816882566222 0.01684527443799675 0.016862300278399911 0.016850566411304068 -0.019569484671633733
leaf_weight=7.4864172339439419 6.9983377456665066 5.2483128160238364 4.8906118124723417 6.1673235148191452 4.9868351221084577 5.1645682007074356 4.9980202317237845 5.3481513112783423 5.4984857589006415 7.2464966922998411 9.4080430865287799 7.2402699440717688 4.8253319412469855 4.9975801408290863
leaf_count=31 28 21 20 25 20 21 20 22 22 29 39 30 20 20
internal_value=0 -0.0132615 0.0131974 0.00347083 -0.00557927 -0.000347294 -0.0179687 0.0163324 -0.0191787 -0.0195938 0.016861 0.0168522 0.0168471 -0.0195697
internal_weight=0 45.1386 45.3661 11.0579 17.1497 10.1514 27.9889 34.3082 22.9909 17.4924 28.9601 21.4736 14.2334 12.2441
internal_count=368 181 187 45 69 41 112 142 92 70 120 89 59 49
is_linear=0
shrinkage=0.01


Tree=12
num_leaves=16
num_cat=0
split_feature=4 4 0 0 7 8 5 7 4 9 0 1 8 4 8
split_gain=155.46 16.0107 13.6547 10.0003 6.6718 4.31002 1.85394 0.124434 0.124017 0.000244854 0.000232128 6.8124e-06 1.67657e-07 8.87493e-09 7.18359e-11
threshold=-0.19174476285584691 1.1969575557837298 8.5000000000000018 17.500000000000004 49.921823881447388 1.8243905864775238 6.1710085988831365 48.663607321941022 1.6102476225902771 51.325701267569464 6.5000000000000009 4.5000000000000009 3.8852522706640258 2.3672725272243924 1.6091535485423833
decision_type=2 2 2 2 2 2 2 2 2 2 2 2 2 2 2
left_child=2 4 7 -4 -2 -6 8 -1 -3 13 11 12 14 -10 -9
right_child=1 6 3 -5 5 -7 -8 10 9 -11 -12 -13 -14 -15 -16
leaf_value=0.015182800871059259 -0.013034704876924569 -0.017685691905118265 -0.0044538545707693044 0.013612357601976072 -0.0069719009957951222 0.0060633347614565559 -0.01227627716782834 0.016730933677377907 -0.019383815982854241 -0.019466963985674185 0.016812002283566253 0.016743711990175804 0.016733166678275579 -0.019384356125269533 0.016730880947430211
leaf_weight=6.2606074512004843 6.9994546771049526 5.4964283853769365 6.4699800908565503 5.8200528770685196 4.9885764718055707 5.160490483045578 4.9990618228912345 5.0495684146881157 5.2446947544813174 4.9962325543165198 4.8202014416456214 6.7352379113435736 4.8094225078821173 7.242687001824379 5.2900159507989883
leaf_count=26 28 22 26 24 20 21 20 21 21 20 20 28 20 29 22
internal_value=0 -0.0131321 0.0130977 0.00410156 -0.00552385 -0.000343882 -0.0177953 0.0164517 -0.0189959 -0.0194078 0.0167492 0.0167353 0.0167316 -0.0193841 0.0167309
internal_weight=0 45.1276 45.2551 12.29 17.1485 10.1491 27.9791 32.9651 22.98 17.4836 26.7044 21.8842 15.149 12.4874 10.3396
internal_count=368 181 187 50 69 41 112 137 92 70 111 91 63 50 43
is_linear=0
shrinkage=0.01


Tree=13
num_leaves=15
num_cat=0
split_feature=4 4 4 0 7 8 5 0 9 4 7 0 7 9
split_gain=152.597 15.7095 13.4826 8.73214 6.5376 4.22498 1.8246 0.508625 0.124409 0.000294261 9.06624e-05 1.00369e-05 8.20306e-07 5.51623e-09
threshold=-0.19174476285584691 1.1969575557837298 -1.223611829989713 9.5000000000000018 49.921823881447388 1.8243905864775238 6.1710085988831365 7.5000000000000009 51.362512165903333 1.9533214991233898 48.781805185970619 4.5000000000000009 51.042447040919576 50.176657377344526
decision_type=2 2 2 2 2 2 2 2 2 2 2 2 2 2
left_child=2 4 7 -4 -2 -6 8 10 9 -3 -1 12 -12 -11
right_child=1 6 3 -5 5 -7 -8 -9 -10 13 11 -13 -14 -15
leaf_value=0.016666382879975926 -0.012903417384223863 -0.01929357368200826 0.013400739485759204 -0.0045106214700425494 -0.0068999535422912973 0.0060075339705857383 -0.012151918750410178 0.013271542103727952 -0.017505556256723113 -0.019204202345596669 0.016619224795139331 0.01663545887343968 0.016624312845337462 -0.019203770221548996
leaf_weight=7.4399032741785076 6.9999624490737942 5.2429288476705649 4.8727272003889066 6.1662186235189438 4.9901786446571332 5.1563598811626434 4.9997141957283011 5.3236480057239524 5.4932687133550635 7.2375505268573743 9.3465259820222872 7.1931652724742881 4.7938357293605796 4.9914043694734573
leaf_count=31 28 21 20 25 20 21 20 22 22 29 39 30 20 20
internal_value=0 -0.0130055 0.0130012 0.00339567 -0.00546925 -0.00034051 -0.0176264 0.016111 -0.0188182 -0.0192309 0.0166363 0.0166258 0.0166209 -0.019204
internal_weight=0 45.1114 45.136 11.0389 17.1465 10.1465 27.9649 34.0971 22.9652 17.4719 28.7734 21.3335 14.1404 12.229
internal_count=368 181 187 45 69 41 112 142 92 70 120 89 59 49
is_linear=0
shrinkage=0.01


Tree=14
num_leaves=16
num_cat=0
split_feature=4 4 0 0 7 8 5 1 4 9 0 9 8 4 0
split_gain=149.795 15.419 13.3035 9.79024 6.40684 4.14171 1.7968 0.125077 0.122562 0.000302894 0.000287701 1.97255e-05 6.42361e-07 1.35611e-08 5.56682e-10
threshold=-0.19174476285584691 1.1969575557837298 8.5000000000000018 17.500000000000004 49.921823881447388 1.8243905864775238 6.1710085988831365 5.5000000000000009 1.6102476225902771 51.325701267569464 6.5000000000000009 49.057751764735876 3.8852522706640258 2.3672725272243924 3.5000000000000004
decision_type=2 2 2 2 2 2 2 2 2 2 2 2 2 2 2
left_child=2 4 7 -4 -2 -6 8 10 -3 13 11 -1 14 -10 -13
right_child=1 6 3 -5 5 -7 -8 -9 9 -11 -12 12 -14 -15 -16
leaf_value=0.016534283233978445 -0.012774533147972189 -0.017342083360137785 -0.0044325478002579365 0.013459793371113861 -0.0068289362531891865 0.005952309269062598 -0.012029733723410832 0.014956266299082151 -0.019028458170440261 -0.019121042314983246 0.016601952054081864 0.016510123997572904 0.01651439177748712 -0.019029126392452706 0.016509987496654367
leaf_weight=4.7803114354610505 6.9998798370361355 5.4894846826791825 6.4705231189727765 5.7988524287939072 4.9916455149650556 5.1521788984537125 4.9999889731407157 6.2202023565769187 5.236314073204996 4.9894083291292182 4.7905142605304709 6.9260655045509356 4.7772513329982749 7.2311276942491531 5.254233255982399
leaf_count=20 28 22 26 24 20 21 20 26 21 20 20 29 20 29 22
internal_value=0 -0.0128816 0.0129051 0.00402388 -0.00541543 -0.000337177 -0.0174617 0.0162325 -0.0186454 -0.0190552 0.0165318 0.0165163 0.0165113 -0.0190288 0.0165101
internal_weight=0 45.09 45.018 12.2694 17.1437 10.1438 27.9463 32.7486 22.9463 17.4569 26.5284 21.7379 16.9576 12.4674 12.1803
internal_count=368 181 187 50 69 41 112 137 92 70 111 91 71 50 51
is_linear=0
shrinkage=0.01


Tree=15
num_leaves=15
num_cat=0
split_feature=4 4 4 0 7 8 5 0 9 4 7 0 7 7
split_gain=147.065 15.1386 13.1498 8.53244 6.2794 4.06015 1.77045 0.499492 0.12302 0.000349649 0.000100657 9.26033e-06 1.73053e-06 8.50726e-09
threshold=-0.19174476285584691 1.1969575557837298 -1.223611829989713 9.5000000000000018 49.921823881447388 1.8243905864775238 6.1710085988831365 7.5000000000000009 51.362512165903333 1.9533214991233898 48.781805185970619 4.5000000000000009 51.042447040919576 50.552760512467358
decision_type=2 2 2 2 2 2 2 2 2 2 2 2 2 2
left_child=2 4 7 -4 -2 -6 8 10 9 -3 -1 12 -12 -11
right_child=1 6 3 -5 5 -7 -8 -9 -10 13 11 -13 -14 -15
leaf_value=0.016453593826416878 -0.012647977570703794 -0.018956420000853482 0.013239927127225153 -0.0044854040923233036 -0.0067588301281439099 0.0058976515036955491 -0.011909655625911673 0.013078727184615571 -0.017170937496303253 -0.018858940406355284 0.016403501393235393 0.016420000675069272 0.016410917229316275 -0.018858403243506596
leaf_weight=7.3899167627096203 6.9992239475250271 5.234044939279566 4.8539333492517454 6.1649120599031448 4.9929809570312482 5.1479497253894806 4.9998974800109854 5.2978115528821936 5.4845241010189048 7.2234588414430601 9.2813041061162966 7.1434354633092871 4.7608424276113501 4.9816775321960449
leaf_count=31 28 21 20 25 20 21 20 22 22 29 39 30 20 20
internal_value=0 -0.0127603 0.0128121 0.00332282 -0.00536237 -0.000333884 -0.0173013 0.015899 -0.0184772 -0.018888 0.0164218 0.0164107 0.016406 -0.0188587
internal_weight=0 45.0638 44.8922 11.0188 17.1402 10.1409 27.9236 33.8733 22.9237 17.4392 28.5755 21.1856 14.0421 12.2051
internal_count=368 181 187 45 69 41 112 142 92 70 120 89 59 49
is_linear=0
shrinkage=0.01


Tree=16
num_leaves=16
num_cat=0
split_feature=4 4 4 0 7 8 5 9 4 0 9 4 8 4 5
split_gain=144.393 14.8678 12.9795 8.37901 6.15516 3.98028 1.74546 0.500964 0.121346 0.00421761 0.000360333 4.85408e-06 9.02038e-06 1.9371e-08 1.33398e-09
threshold=-0.19174476285584691 1.1969575557837298 -1.223611829989713 9.5000000000000018 49.921823881447388 1.8243905864775238 6.1710085988831365 48.632147710994104 1.6102476225902771 6.5000000000000009 51.325701267569464 -2.5900812911797684 1.5844249842709648 2.3672725272243924 2.078982667077574
decision_type=2 2 2 2 2 2 2 2 2 2 2 2 2 2 2
left_child=2 4 7 -4 -2 -6 8 -1 -3 11 13 12 -9 -10 -13
right_child=1 6 3 -5 5 -7 -8 9 10 -11 -12 14 -14 -15 -16
leaf_value=0.013224240435570222 -0.012523676280946529 -0.017015605737691158 0.013135324290197906 -0.0044385622458993105 -0.0066896146825736885 0.0058435521382844795 -0.011791617855031768 0.016299296429212615 -0.018692632108694728 0.016595770919020009 -0.018793760392036726 0.01629908179767316 0.016318327647479865 -0.018693431661332773 0.01629930308171218
leaf_weight=6.1907787919044486 6.9980123043060329 5.4791199713945451 4.8437127918004972 6.1676587909460068 4.9941885471343976 5.1436745524406433 4.99945044517517 4.9793611317873019 5.2243188172578829 6.4590543657541266 4.9793677330017081 4.7422119379043597 4.9827533215284348 7.2145819365978241 6.402037113904953
leaf_count=26 28 22 20 25 20 21 20 21 21 27 20 20 21 29 27
internal_value=0 -0.0126414 0.0127195 0.00329189 -0.00531007 -0.000330629 -0.0171448 0.0157948 -0.0183136 0.0163722 -0.0187219 0.0163037 0.0163088 -0.0186931 0.0162992
internal_weight=0 45.0327 44.7676 11.0114 17.1359 10.1379 27.8968 33.7562 22.8974 27.5654 17.4183 21.1064 9.96211 12.4389 11.1442
internal_count=368 181 187 45 69 41 112 142 92 116 70 89 42 50 47
is_linear=0
shrinkage=0.01


Tree=17
num_leaves=16
num_cat=0
split_feature=4 4 0 0 7 8 5 7 9 4 0 1 8 6 8
split_gain=141.781 14.6062 12.8438 9.53783 6.03402 3.90205 1.72175 0.123914 0.121863 0.000403438 0.000399724 1.59054e-05 2.11147e-06 1.21299e-08 3.06876e-10
threshold=-0.19174476285584691 1.1969575557837298 8.5000000000000018 17.500000000000004 49.921823881447388 1.8243905864775238 6.1710085988831365 48.663607321941022 51.362512165903333 1.9533214991233898 6.5000000000000009 4.5000000000000009 3.8852522706640258 49.921823881447388 1.6091535485423833
decision_type=2 2 2 2 2 2 2 2 2 2 2 2 2 2 2
left_child=2 4 7 -4 -2 -6 8 -1 9 -3 11 12 14 -11 -9
right_child=1 6 3 -5 5 -7 -8 10 -10 13 -12 -13 -14 -15 -16
leaf_value=0.014647911736308685 -0.012401557543448271 -0.018637247808712426 -0.0044367647791030791 0.013250726315327529 -0.0066212758744805247 0.0057900022045754692 -0.011675559502441913 0.016197454661897599 -0.016852753293803542 -0.018532438200067714 0.016307121588821513 0.016218599485010931 0.016205489537122812 -0.018531795942476576 0.016197344702365543
leaf_weight=6.1586175709962836 6.9962611794471767 5.2218741625547507 6.4689294248819333 5.7662871181964874 4.9952718615531904 5.1393558830022812 4.9986585974693289 4.9606559574604088 5.4724679589271537 7.2045360803604108 4.7435103505849829 6.6194445937871924 4.7258427441120139 4.9686159789562225 5.1968560069799423
leaf_count=26 28 21 26 24 20 21 20 21 22 29 20 28 20 20 22
internal_value=0 -0.012525 0.0126285 0.0038991 -0.0052585 -0.000327411 -0.0169921 0.0159245 -0.0181543 -0.0185637 0.016224 0.0162057 0.0162 -0.0185322 0.0161974
internal_weight=0 44.997 44.6401 12.2352 17.1309 10.1346 27.8662 32.4049 22.8675 17.395 26.2463 21.5028 14.8834 12.1732 10.1575
internal_count=368 181 187 50 69 41 112 137 92 70 111 91 63 49 43
is_linear=0
shrinkage=0.01


Tree=18
num_leaves=16
num_cat=0
split_feature=4 4 0 7 1 8 5 0 4 9 7 7 5 4 4
split_gain=139.236 14.3532 12.6852 5.91587 5.26381 3.82543 1.69926 0.554685 0.120346 0.000416257 0.000171168 3.57652e-06 4.57279e-07 2.61537e-08 1.86032e-09
threshold=-0.19174476285584691 1.1969575557837298 9.5000000000000018 49.921823881447388 3.5000000000000004 1.8243905864775238 6.1710085988831365 6.5000000000000009 1.6102476225902771 51.325701267569464 48.781805185970619 50.823647591318682 1.7087339889361834 2.3672725272243924 -1.9036192051501628
decision_type=2 2 2 2 2 2 2 2 2 2 2 2 2 2 2
left_child=2 3 7 -2 -4 -5 8 10 -3 13 -1 14 -13 -10 -12
right_child=1 6 4 5 -6 -7 -8 -9 9 -11 11 12 -14 -15 -16
leaf_value=0.016160781054153237 -0.012281552341876069 -0.016704941035445443 0.0097137812550328016 -0.006553793918261365 -0.0048084646227017983 0.0057369935364104778 -0.011561420738833952 0.013130826679493543 -0.018374831887358615 -0.018483713161436689 0.016097858574810286 0.016104183781280951 0.016108489991417948 -0.018375762303235559 0.016097583865729709
leaf_weight=6.6049150228500393 6.993987679481509 5.4655453711748185 5.1067490428686124 4.9962344765663129 4.8820246011018753 5.1349955946207047 4.9975326657295218 8.1423440724611265 5.2089314609766024 4.9663069844245902 5.1768289357423773 5.178121477365492 4.7081640660762787 7.1933569610118866 4.7061567306518581
leaf_count=28 28 22 21 20 20 21 20 34 21 20 22 22 20 29 20
internal_value=0 -0.0124109 0.0125403 -0.00520763 0.00261602 -0.000324231 -0.0168431 0.0154123 -0.0179991 -0.0184064 0.0161167 0.016102 0.0161062 -0.0183754 0.0160977
internal_weight=0 44.9569 44.5053 17.1252 9.98877 10.1312 27.8317 34.5165 22.8341 17.3686 26.3742 19.7693 9.88629 12.4023 9.88299
internal_count=368 181 187 69 41 41 112 146 92 70 112 84 42 50 42
is_linear=0
shrinkage=0.01


Tree=19
num_leaves=16
num_cat=0
split_feature=4 4 4 0 7 8 5 9 9 0 4 4 8 7 4
split_gain=136.735 14.1086 12.6062 8.10163 5.80062 3.75038 1.67791 0.496987 0.120918 0.00566662 0.00045503 5.8532e-06 1.08315e-05 1.64666e-08 1.61662e-09
threshold=-0.19174476285584691 1.1969575557837298 -1.223611829989713 9.5000000000000018 49.921823881447388 1.8243905864775238 6.1710085988831365 48.632147710994104 51.362512165903333 6.5000000000000009 1.9533214991233898 -2.5900812911797684 1.5844249842709648 50.552760512467358 -1.9036192051501628
decision_type=2 2 2 2 2 2 2 2 2 2 2 2 2 2 2
left_child=2 4 7 -4 -2 -6 8 -1 10 11 -3 12 -9 -12 -13
right_child=1 6 3 -5 5 -7 -8 9 -10 -11 13 14 -14 -15 -16
leaf_value=0.012934296143109038 -0.012163596062694071 -0.018334716392363143 0.012878145740493075 -0.0044359290758401969 -0.0064871524032087003 0.0056845187450247003 -0.011449144542515957 0.016000467721208868 -0.016549755802972219 0.016345422583291157 -0.018223265235739031 0.016000484577876159 0.016021442449594671 -0.018222515702476374 0.016000240910388909
leaf_weight=6.1312837302684775 6.9912072420120266 5.2066184431314566 4.812050446867941 6.16488416492939 4.9970793724060041 5.1305961906909943 4.9960824847221366 4.9219709336757678 5.4573055058717719 6.4040988087654105 7.1810824126005155 4.921974316239357 4.9262392222881317 4.9524265229701996 6.0938110947608966
leaf_count=26 28 21 20 25 20 21 20 21 22 27 29 21 21 20 26
internal_value=0 -0.012299 0.0124512 0.00315419 -0.00515747 -0.000321085 -0.0166977 0.0155068 -0.0178479 0.0160852 -0.0182565 0.0160054 0.016011 -0.018223 0.0160003
internal_weight=0 44.9124 44.3763 10.9769 17.1189 10.1277 27.7935 33.3994 22.7974 27.2681 17.3401 20.864 9.84821 12.1335 11.0158
internal_count=368 181 187 45 69 41 112 142 92 116 70 89 42 49 47
is_linear=0
shrinkage=0.01


Tree=20
num_leaves=16
num_cat=0
split_feature=4 4 6 9 4 7 9 5 9 0 9 4 4 8 4
split_gain=134.306 18.7767 10.0967 9.75362 8.57256 3.20191 1.26678 0.908945 0.493009 0.00540435 0.000706868 0.000101126 5.57864e-06 1.03229e-05 1.54058e-09
threshold=1.0000000180025095e-35 -1.223611829989713 50.823647591318682 50.176657377344526 1.3893212065291867 50.823647591318682 50.110329199709959 5.7753162947632228 48.632147710994104 6.5000000000000009 51.362512165903333 2.1382747006755447 -2.5900812911797684 1.5844249842709648 -1.9036192051501628
decision_type=2 2 2 2 2 2 2 2 2 2 2 2 2 2 2
left_child=1 8 3 -3 5 6 -2 10 -1 12 11 -6 13 -10 -14
right_child=4 2 -4 -5 7 -7 -8 -9 9 -11 -12 -13 14 -15 -16
leaf_value=0.012844768307337726 -0.0075508281644846367 0.005568063220391232 0.01394892548540316 -0.013701035350137914 -0.018128946867889916 -0.0017040519085214324 -0.014698899308112559 -0.013438362958668864 0.015905221491126571 0.016242739498171118 -0.018233078615289711 -0.018074501639513116 0.015905237778869648 0.015925739319963338 0.015904999427634087
leaf_weight=6.1123733520507804 4.9787594676017743 5.6217636764049512 4.8881676495075217 4.931038036942482 5.4413003623485627 5.6981642544269553 4.9384710192680359 5.236377239227294 4.9020309001207369 6.3802577555179587 4.9529834836721411 9.1450226008892042 4.9020343869924545 4.9063837230205536 6.0691223144531268
leaf_count=26 20 23 20 20 22 23 20 21 21 27 20 37 21 21 26
internal_value=0 0.0111813 0.00206766 -0.00343586 -0.0134809 -0.00767792 -0.0111103 -0.0171383 0.0154107 0.0159882 -0.0181299 -0.0180948 0.01591 0.0159155 0.0159051
internal_weight=0 48.7132 15.441 10.5528 40.3911 15.6154 9.91723 24.7757 33.2722 27.1598 19.5393 14.5863 20.7796 9.80841 10.9712
internal_count=368 205 63 43 163 63 40 100 142 116 79 59 89 42 47
is_linear=0
shrinkage=0.01


Tree=21
num_leaves=16
num_cat=0
split_feature=4 4 0 0 7 8 5 1 9 0 4 5 8 5 0
split_gain=131.913 13.6688 12.3599 9.27465 5.65702 3.7102 1.64897 0.123088 0.120561 0.000653395 0.00063981 0.000123712 4.93503e-06 1.09262e-06 1.99094e-09
threshold=-0.19174476285584691 1.1969575557837298 8.5000000000000018 17.500000000000004 49.921823881447388 1.8243905864775238 6.1710085988831365 5.5000000000000009 51.362512165903333 6.5000000000000009 1.9533214991233898 6.105305232654664 2.1022077080176982 2.1435960065421984 3.5000000000000004
decision_type=2 2 2 2 2 2 2 2 2 2 2 2 2 2 2
left_child=2 4 7 -4 -2 -6 8 9 10 11 -3 12 14 -12 -1
right_child=1 6 3 -5 5 -7 -8 -9 -10 -11 13 -13 -14 -15 -16
leaf_value=0.015812011972448376 -0.011976049298268477 -0.018064765124009088 -0.0044961662076221445 0.012985669833916573 -0.0064110917571501167 0.0056943215151043962 -0.011215540120585623 0.014269595511492681 -0.016264778918140807 0.015958744863221318 -0.017929520041908877 0.015873656456346062 0.015824048354860988 -0.017935637243729416 0.01581175153905794
leaf_weight=6.5089398920536166 6.9855542629957226 5.1895851343870261 6.4635984897613508 5.7207130491733551 4.9978180974721891 5.1313466578722 4.9919453859329215 6.0718582272529593 5.4394631385803214 4.6790668517351142 7.153318524360655 4.6617658138275138 4.6517716199159613 4.9337576627731323 5.3465657830238342
leaf_count=28 28 21 26 24 20 21 20 26 22 20 29 20 20 20 23
internal_value=0 -0.0120794 0.0122802 0.00371181 -0.00505304 -0.000278595 -0.0164195 0.0155508 -0.0175631 0.0158518 -0.0179719 0.0158282 0.0158153 -0.017932 0.0158119
internal_weight=0 44.8228 44.1043 12.1843 17.1147 10.1292 27.7081 31.92 22.7161 25.8481 17.2767 21.169 16.5073 12.0871 11.8555
internal_count=368 181 187 50 69 41 112 137 92 111 70 91 71 49 51
is_linear=0
shrinkage=0.01


Tree=22
num_leaves=16
num_cat=0
split_feature=4 4 6 9 4 7 9 5 9 0 9 4 4 8 4
split_gain=129.647 18.2821 9.90693 9.5133 8.31511 3.11754 1.25711 0.889241 0.489069 0.00545482 0.000782579 9.00789e-05 6.87107e-06 1.25264e-05 2.11762e-09
threshold=1.0000000180025095e-35 -1.223611829989713 50.823647591318682 50.176657377344526 1.3893212065291867 50.823647591318682 50.110329199709959 5.7753162947632228 48.632147710994104 6.5000000000000009 51.362512165903333 2.1382747006755447 -2.5900812911797684 1.5844249842709648 -1.9036192051501628
decision_type=2 2 2 2 2 2 2 2 2 2 2 2 2 2 2
left_child=1 8 3 -3 5 6 -2 10 -1 12 11 -6 13 -10 -14
right_child=4 2 -4 -5 7 -7 -8 -9 9 -11 -12 -13 14 -15 -16
leaf_value=0.012663184031790561 -0.0073770393073973282 0.0054934565027386726 0.01382733245517759 -0.013543833573618737 -0.017840428340127158 -0.0016404741598501659 -0.014500517767396911 -0.013200304172082114 0.015720863838671429 0.016061651516038219 -0.017953903805414239 -0.017788937617514652 0.015720806165105738 0.015743559762750461 0.015720525541755077
leaf_weight=6.0711148083209983 4.9744866937398893 5.6111065000295621 4.8743268996477118 4.9323792457580566 5.4192926585674348 5.6956394314765921 4.9351045191287994 5.2293081581592551 4.8610276281833666 6.3342536538839331 4.9349983334541312 9.1070962101221067 4.8610142767429352 4.8662357032299042 6.0183182954788226
leaf_count=26 20 23 20 20 22 23 20 21 21 27 20 37 21 21 26
internal_value=0 0.0110283 0.0020379 -0.00341243 -0.01325 -0.00753607 -0.0109246 -0.0168614 0.0152272 0.015805 -0.0178451 -0.0178081 0.0157261 0.0157322 0.0157207
internal_weight=0 48.4298 15.4178 10.5435 40.2959 15.6052 9.90959 24.6907 33.012 26.9408 19.4614 14.5264 20.6066 9.72726 10.8793
internal_count=368 205 63 43 163 63 40 100 142 116 79 59 89 42 47
is_linear=0
shrinkage=0.01


Tree=23
num_leaves=16
num_cat=0
split_feature=4 4 6 9 4 7 9 5 0 9 6 4 0 4 4
split_gain=127.323 18.0553 9.72552 9.31756 8.20063 3.05598 1.23054 0.881714 0.491458 0.000741647 0.000627192 8.53974e-05 2.37459e-05 5.67879e-06 1.59567e-09
threshold=1.0000000180025095e-35 -1.223611829989713 50.823647591318682 50.176657377344526 1.3893212065291867 50.823647591318682 50.110329199709959 5.7753162947632228 7.5000000000000009 51.362512165903333 48.663607321941022 2.1382747006755447 5.5000000000000009 -2.5900812911797684 -1.9036192051501628
decision_type=2 2 2 2 2 2 2 2 2 2 2 2 2 2 2
left_child=1 8 3 -3 5 6 -2 9 10 11 -1 -6 13 -12 -15
right_child=4 2 -4 -5 7 -7 -8 -9 -10 -11 12 -13 -14 14 -16
leaf_value=0.015762671028301731 -0.0073051755221860363 0.0054422041552837624 0.013713199659424181 -0.013396929558752942 -0.017701797310923535 -0.0016239707632073484 -0.014353126229314662 -0.01307871199308608 0.012308260214152961 -0.01781237836400415 0.015642780106813758 -0.017651605815916217 0.015662204562962322 0.015631577390737356 0.015631317418080534
leaf_weight=5.3344288617372539 4.9731950908899289 5.6073289066553098 4.8657889515161505 4.936579093337059 5.4071767777204576 5.6959831416606894 4.935920462012291 5.2251659333705893 5.1758577525615683 4.9245187342166892 8.3016867488622701 9.0862748324871045 4.616399571299552 4.6095066815614727 4.8399195224046681
leaf_count=23 20 23 20 20 22 23 20 21 22 20 36 37 20 20 21
internal_value=0 0.0109505 0.00201865 -0.00337814 -0.0131331 -0.00746077 -0.0108159 -0.0167251 0.0151368 -0.0177064 0.0156652 -0.0176703 0.015642 0.0156367 0.0156314
internal_weight=0 48.2875 15.4097 10.5439 40.2482 15.6051 9.90912 24.6431 32.8778 19.418 27.7019 14.4935 22.3675 17.7511 9.44943
internal_count=368 205 63 43 163 63 40 100 142 79 120 59 97 77 41
is_linear=0
shrinkage=0.01


Tree=24
num_leaves=16
num_cat=0
split_feature=4 4 0 0 7 8 5 7 9 4 4 1 0 5 1
split_gain=125.076 13.0718 12.0501 8.96503 5.48977 3.70351 1.61629 0.123964 0.12147 0.00163586 0.0010953 4.34286e-05 1.59451e-05 7.77793e-06 9.08813e-10
threshold=-0.19174476285584691 1.1969575557837298 8.5000000000000018 17.500000000000004 49.921823881447388 1.8243905864775238 6.1710085988831365 48.663607321941022 51.362512165903333 -1.4777691303684846 1.9533214991233898 4.5000000000000009 4.5000000000000009 2.1435960065421984 2.5000000000000004
decision_type=2 2 2 2 2 2 2 2 2 2 2 2 2 2 2
left_child=2 4 7 -4 -2 -6 8 -1 10 11 -3 12 14 -12 -9
right_child=1 6 3 -5 5 -7 -8 9 -10 -11 13 -13 -14 -15 -16
leaf_value=0.014000935845665233 -0.011726196083377395 -0.017698097457490951 -0.0044875597870742542 0.012738649820101731 -0.0063275779188983871 0.0057639048887812537 -0.010871981831532589 0.015544109255961154 -0.015857533846398465 0.0157679450053675 -0.017517204848649749 0.015583737545725807 0.015565954754042202 -0.017533581092760188 0.015544299798612318
leaf_weight=6.0023050159215954 6.9751755744218853 5.1605049669742682 6.4606729596853238 5.6748210191726685 4.9978158026933652 5.1365372538566589 4.9830012023448935 5.5069526433944755 5.4073428064584723 4.637503206729888 7.1043567359447461 5.7479135245084754 5.0536311417818061 4.9010234624147415 4.5891725122928619
leaf_count=26 28 21 26 24 20 21 20 24 22 20 29 25 22 20 20
internal_value=0 -0.0117639 0.0120357 0.00356779 -0.00489843 -0.000199081 -0.0160267 0.0152941 -0.0171645 0.015598 -0.0175763 0.0155603 0.0155515 -0.0175239 0.0155442
internal_weight=0 44.6658 43.673 12.1355 17.1095 10.1344 27.5562 31.5375 22.5732 25.5352 17.1659 20.8977 15.1498 12.0054 10.0961
internal_count=368 181 187 50 69 41 112 137 92 111 70 91 66 49 44
is_linear=0
shrinkage=0.01


Tree=25
num_leaves=16
num_cat=0
split_feature=4 4 6 9 4 7 9 5 9 0 9 4 4 8 4
split_gain=122.966 17.5944 9.54457 9.09023 7.96926 2.97728 1.22233 0.865144 0.488997 0.00577422 0.000811504 7.5597e-05 7.8878e-06 1.41498e-05 9.45133e-09
threshold=1.0000000180025095e-35 -1.223611829989713 50.823647591318682 50.176657377344526 1.3893212065291867 50.823647591318682 50.110329199709959 5.7753162947632228 48.632147710994104 6.5000000000000009 51.362512165903333 2.1382747006755447 -2.5900812911797684 1.5844249842709648 -1.7503685714861446
decision_type=2 2 2 2 2 2 2 2 2 2 2 2 2 2 2
left_child=1 8 3 -3 5 6 -2 10 -1 12 11 -6 13 -10 -14
right_child=4 2 -4 -5 7 -7 -8 -9 9 -11 -12 -13 14 -15 -16
leaf_value=0.0123864075080619 -0.0071377197684119051 0.0053696209088661719 0.013596610064361463 -0.013246790282640848 -0.017434472792321923 -0.0015625857611253804 -0.014165907660767106 -0.012853042509379381 0.015458674319043486 0.015811462687497023 -0.017553720096785491 -0.017387132620266695 0.015458602681335847 0.015482955467797273 0.015458002569889134
leaf_weight=6.0037942677736273 4.9678546786308271 5.5963466763496381 4.8508798480033866 4.9366021454334259 5.3807843625545564 5.6931449323892585 4.9306296110153198 5.215810313820838 4.7969146668910998 6.2646449506282798 4.902828946709632 9.0411085635423643 6.1674377471208572 4.8031301349401474 4.5683248639106768
leaf_count=26 20 23 20 20 22 23 20 21 21 27 20 37 27 21 20
internal_value=0 0.0108049 0.00198986 -0.00335555 -0.0129152 -0.00732457 -0.0106386 -0.0164671 0.0149642 0.015546 -0.0174426 -0.0174048 0.0154642 0.0154708 0.0154583
internal_weight=0 47.9881 15.3838 10.5329 40.1322 15.5916 9.89848 24.5405 32.6042 26.6005 19.3247 14.4219 20.3358 9.60004 10.7358
internal_count=368 205 63 43 163 63 40 100 142 116 79 59 89 42 47
is_linear=0
shrinkage=0.01


Tree=26
num_leaves=16
num_cat=0
split_feature=4 4 6 9 4 7 9 5 0 6 9 4 0 4 4
split_gain=120.789 17.3822 9.37125 8.90483 7.86661 2.91938 1.19729 0.859036 0.491569 0.000797277 0.000769988 7.1753e-05 2.01187e-05 6.53691e-06 7.97648e-09
threshold=1.0000000180025095e-35 -1.223611829989713 50.823647591318682 50.176657377344526 1.3893212065291867 50.823647591318682 50.110329199709959 5.7753162947632228 7.5000000000000009 48.663607321941022 51.362512165903333 2.1382747006755447 5.5000000000000009 -2.5900812911797684 -1.9036192051501628
decision_type=2 2 2 2 2 2 2 2 2 2 2 2 2 2 2
left_child=1 8 3 -3 5 6 -2 10 9 -1 11 -6 13 -11 -15
right_child=4 2 -4 -5 7 -7 -8 -9 -10 12 -12 -13 -14 14 -16
leaf_value=0.015522135453812402 -0.0070687485926938963 0.0053196257291739388 0.013486528122277753 -0.013105791267262594 -0.017305983927030515 -0.0015468793536350777 -0.014025296851959539 -0.012737477593609802 0.01203662803796671 0.015386899419599587 -0.017422283986399469 -0.017259801737864774 0.015403973599846304 0.015374954680531754 0.015374369482380809
leaf_weight=5.2714131474494961 4.9661718755960447 5.5924726426601392 4.8416161537170401 4.9397990107536316 5.3665976226329866 5.6934377551078788 4.9302627295255661 5.2105273008346549 5.1244026422500601 8.1910065114498174 4.8904799669980994 9.0168506205081922 4.5548181980848303 4.5475461333990124 4.7747670114040348
leaf_count=23 20 23 20 20 22 23 20 21 22 36 20 37 20 20 21
internal_value=0 0.0107307 0.0019713 -0.00332218 -0.0128046 -0.00725215 -0.0105344 -0.01634 0.0148789 0.0154116 -0.0173139 -0.017277 0.0153853 0.0153804 0.0153747
internal_weight=0 47.8378 15.3739 10.5323 40.0743 15.5899 9.89643 24.4845 32.464 27.3396 19.2739 14.3834 22.0681 17.5133 9.32231
internal_count=368 205 63 43 163 63 40 100 142 120 79 59 97 77 41
is_linear=0
shrinkage=0.01


Tree=27
num_leaves=16
num_cat=0
split_feature=4 4 0 7 1 8 5 0 9 4 4 6 5 0 4
split_gain=118.673 12.527 11.8088 5.33103 5.07714 3.69636 1.58908 1.09068 0.12254 0.00160526 0.0012381 0.000710811 1.8717e-05 1.28636e-05 4.58188e-06
threshold=-0.19174476285584691 1.1969575557837298 9.5000000000000018 49.921823881447388 3.5000000000000004 1.8243905864775238 6.1710085988831365 7.5000000000000009 51.362512165903333 1.9533214991233898 -1.5985940129165161 48.663607321941022 2.1435960065421984 4.5000000000000009 -2.5900812911797684
decision_type=2 2 2 2 2 2 2 2 2 2 2 2 2 2 2
left_child=2 3 7 -2 -4 -5 8 10 9 -3 11 -1 -11 14 -13
right_child=1 6 4 5 -6 -7 -8 -9 -10 12 -12 13 -14 -15 -16
leaf_value=0.015438202964973368 -0.011487393918135249 -0.017356994679550156 0.0092296279509138275 -0.0062472322690041498 -0.0051219533200165777 0.0058306654511462849 -0.010544222065907324 0.010073849641771677 -0.015476599132872393 -0.017134944378472391 0.015511574104702771 0.015304712634656308 -0.017160448842822109 0.015316563231998747 0.015292891255724162
leaf_weight=5.0197210907936123 6.9620371162891415 5.1266079545021155 5.0258221626281721 4.9969033747911435 4.8378213942050934 5.1407878547906876 4.9711560308933249 4.5127190053462973 5.3696019351482382 7.0473068803548795 4.5745417177677181 6.7940836697816884 4.8629868179559708 6.1187998056411734 6.3368263244628888
leaf_count=22 28 21 21 20 20 21 20 19 22 29 20 30 20 27 28
internal_value=0 -0.0114649 0.011803 -0.00474968 0.00219061 -0.000122572 -0.0156591 0.0146454 -0.0167939 -0.017209 0.0153607 0.0153322 -0.0171454 0.0153046 0.015299
internal_weight=0 44.4774 43.2203 17.0997 9.86364 10.1377 27.3777 33.3567 22.4065 17.0369 28.844 24.2694 11.9103 19.2497 13.1309
internal_count=368 181 187 69 41 41 112 146 92 70 127 107 49 85 58
is_linear=0
shrinkage=0.01


Tree=28
num_leaves=16
num_cat=0
split_feature=4 4 6 9 4 7 9 5 9 0 9 4 4 8 4
split_gain=116.698 17.0081 9.17529 8.7175 7.65774 2.84581 1.19037 0.845145 0.491708 0.00694993 0.000834321 6.31248e-05 7.222e-06 1.25624e-05 4.02241e-08
threshold=1.0000000180025095e-35 -1.223611829989713 50.823647591318682 50.176657377344526 1.3893212065291867 50.823647591318682 50.110329199709959 5.7753162947632228 48.632147710994104 6.5000000000000009 51.362512165903333 2.1382747006755447 -2.5900812911797684 1.5844249842709648 -1.7503685714861446
decision_type=2 2 2 2 2 2 2 2 2 2 2 2 2 2 2
left_child=1 8 3 -3 5 6 -2 10 -1 12 11 -6 13 -10 -14
right_child=4 2 -4 -5 7 -7 -8 -9 9 -11 -12 -13 14 -15 -16
leaf_value=0.012120584075986558 -0.0069072012863193701 0.0052520395274588258 0.013344897701727459 -0.012986482520854525 -0.017057710933099168 -0.00148757470187128 -0.013848292478626305 -0.012523083989300045 0.015212459425984736 0.015600721624414003 -0.017182076613555336 -0.017014270630564481 0.015212496212607745 0.015235498731158665 0.015211249453974019
leaf_weight=5.9332174062728873 4.9598584324121457 5.5833358615636808 4.825525388121604 4.9388251155614853 5.3362377285957399 5.6903057098388663 4.9232074171304703 5.1991014033555976 4.7300215512514132 6.2001931369304648 4.865446224808692 8.9651501029729825 6.0814696699380875 4.7365487962961197 4.5044531524181384
leaf_count=26 20 23 20 20 22 23 20 21 21 27 20 37 27 21 20
internal_value=0 0.0105899 0.00192746 -0.00330864 -0.0125983 -0.00712123 -0.0103649 -0.016099 0.0147205 0.0153081 -0.017069 -0.0170305 0.0152176 0.015224 0.015212
internal_weight=0 47.5336 15.3477 10.5222 39.9393 15.5734 9.88307 24.3659 32.1859 26.2527 19.1668 14.3014 20.0525 9.46657 10.5859
internal_count=368 205 63 43 163 63 40 100 142 116 79 59 89 42 47
is_linear=0
shrinkage=0.01


Tree=29
num_leaves=16
num_cat=0
split_feature=4 4 6 9 4 7 9 5 9 0 9 4 4 8 4
split_gain=114.657 16.808 9.01009 8.54103 7.5653 2.79125 1.1667 0.84025 0.48905 0.00664411 0.000792525 5.99834e-05 6.89952e-06 1.20008e-05 3.8429e-08
threshold=1.0000000180025095e-35 -1.223611829989713 50.823647591318682 50.176657377344526 1.3893212065291867 50.823647591318682 50.110329199709959 5.7753162947632228 48.632147710994104 6.5000000000000009 51.362512165903333 2.1382747006755447 -2.5900812911797684 1.5844249842709648 -1.7503685714861446
decision_type=2 2 2 2 2 2 2 2 2 2 2 2 2 2 2
left_child=1 8 3 -3 5 6 -2 10 -1 12 11 -6 13 -10 -14
right_child=4 2 -4 -5 7 -7 -8 -9 9 -11 -12 -13 14 -15 -16
leaf_value=0.012042588944758677 -0.0068409481212182944 0.0052032258069943807 0.013239056787669583 -0.012850494888889627 -0.016938347138338802 -0.0014726343511733389 -0.013713889923735989 -0.012413011425126626 0.015133765414096736 0.015514253476604409 -0.017059729808455947 -0.01689593735989257 0.015133801246955507 0.015156338272159118 0.015132579673837705
leaf_weight=5.9120343625545493 4.9578255265951139 5.5793784409761411 4.81551270186901 4.9411661624908447 5.3201837688684526 5.6905529201030722 4.9217495769262314 5.1927838772535315 4.7071855515241641 6.1725408136844626 4.851406291127204 8.9377963095903379 6.0521092414855957 4.713788628578186 4.482700780034067
leaf_count=26 20 23 20 20 22 23 20 21 21 27 20 37 27 21 20
internal_value=0 0.010519 0.00190969 -0.00327603 -0.0124934 -0.00705149 -0.0102649 -0.01598 0.0146398 0.0152275 -0.0169493 -0.0169118 0.0151388 0.0151451 0.0151333
internal_weight=0 47.3764 15.3361 10.5205 39.8723 15.5701 9.87958 24.3022 32.0404 26.1283 19.1094 14.258 19.9558 9.42097 10.5348
internal_count=368 205 63 43 163 63 40 100 142 116 79 59 89 42 47
is_linear=0
shrinkage=0.01


Tree=30
num_leaves=16
num_cat=0
split_feature=4 4 6 9 4 7 9 5 9 0 9 4 4 8 4
split_gain=112.66 16.6117 8.84844 8.3688 7.47583 2.73802 1.14379 0.835703 0.486572 0.00635331 0.000753102 5.70196e-05 6.59304e-06 1.14675e-05 3.67249e-08
threshold=1.0000000180025095e-35 -1.223611829989713 50.823647591318682 50.176657377344526 1.3893212065291867 50.823647591318682 50.110329199709959 5.7753162947632228 48.632147710994104 6.5000000000000009 51.362512165903333 2.1382747006755447 -2.5900812911797684 1.5844249842709648 -1.7503685714861446
decision_type=2 2 2 2 2 2 2 2 2 2 2 2 2 2 2
left_child=1 8 3 -3 5 6 -2 10 -1 12 11 -6 13 -10 -14
right_child=4 2 -4 -5 7 -7 -8 -9 9 -11 -12 -13 14 -15 -16
leaf_value=0.011965612560044614 -0.0067754596780435971 0.0051548982272980664 0.013134933790257533 -0.012717020843540205 -0.016821816687039658 -0.0014578466952713785 -0.013581983481340676 -0.012304720497489053 0.015056657066311843 0.015429588512949755 -0.016940316860151003 -0.016780402799968914 0.015056692204938844 0.015078776889491425 0.015055495083453604
leaf_weight=5.8906738460063961 4.9556985646486265 5.5753885805606824 4.8052009344100943 4.943086713552475 5.3035513162612977 5.6907919645309439 4.9198624938726425 5.1861327588558188 4.6840948611497932 6.1444871127605429 4.8368207514286032 8.9094819128513318 6.0224213600158727 4.6907701939344406 4.4607060402631706
leaf_count=26 20 23 20 20 22 23 20 21 21 27 20 37 27 21 20
internal_value=0 0.0104493 0.00189218 -0.00324389 -0.0123904 -0.00698268 -0.0101664 -0.0158637 0.0145607 0.0151486 -0.0168325 -0.0167959 0.0150616 0.0150677 0.0150562
internal_weight=0 47.2168 15.3237 10.5185 39.8023 15.5664 9.87556 24.236 31.8932 26.0025 19.0499 14.213 19.858 9.37487 10.4831
internal_count=368 205 63 43 163 63 40 100 142 116 79 59 89 42 47
is_linear=0
shrinkage=0.01


Tree=31
num_leaves=16
num_cat=0
split_feature=4 4 0 7 1 8 5 0 9 4 4 6 5 0 4
split_gain=110.735 11.8776 11.4964 5.15582 4.93767 3.72094 1.56322 1.08697 0.124922 0.00265508 0.00248176 0.00117698 4.07336e-05 8.84577e-06 3.83222e-06
threshold=-0.19174476285584691 1.1969575557837298 9.5000000000000018 49.921823881447388 3.5000000000000004 1.8243905864775238 6.1710085988831365 7.5000000000000009 51.362512165903333 -1.5985940129165161 1.9533214991233898 48.663607321941022 2.1435960065421984 4.5000000000000009 -2.5900812911797684
decision_type=2 2 2 2 2 2 2 2 2 2 2 2 2 2 2
left_child=2 3 7 -2 -4 -5 8 9 10 11 -3 -1 -12 14 -13
right_child=1 6 4 5 -6 -7 -8 -9 -10 -11 12 13 -14 -15 -16
leaf_value=0.015164882001128753 -0.011198704468140331 -0.016946842523714516 0.0089849473550973943 -0.0061628797218073687 -0.0052133103776350236 0.0059530213081025749 -0.010124968660802244 0.0097633965720308798 -0.015003076093634778 0.015292076763323423 -0.016666825383262581 0.014992110751702608 -0.016704679856592339 0.015001543061250202 0.014981193756967158
leaf_weight=4.9408290684223202 6.94111339747906 5.0755859911441901 4.9809937179088575 4.9938445240259153 4.8191007673740387 5.1476298868656158 4.9510541856288901 4.4696235656738272 5.3110898286104193 4.5103737860918072 6.9600330293178541 6.6631252914667165 4.8051330149173737 6.0005453675985327 6.2143916785716993
leaf_count=22 28 21 21 20 20 21 20 19 22 20 29 30 20 27 28
internal_value=0 -0.0110887 0.0115068 -0.00455809 0.00200309 -1.30664e-05 -0.0152049 0.0143465 -0.0163403 0.0150696 -0.016762 0.0150275 -0.0166823 0.0149915 0.0149868
internal_weight=0 44.1855 42.599 17.0826 9.80009 10.1415 27.1029 32.7989 22.1518 28.3293 16.8408 23.8189 11.7652 18.8781 12.8775
internal_count=368 181 187 69 41 41 112 146 92 127 70 107 49 85 58
is_linear=0
shrinkage=0.01


Tree=32
num_leaves=16
num_cat=0
split_feature=4 4 6 9 4 8 8 5 9 0 9 4 4 8 4
split_gain=108.901 16.2667 8.66635 8.19505 7.29237 2.71226 3.5149 0.824774 0.486744 0.0071902 0.000811209 4.96737e-05 6.45871e-06 1.0574e-05 1.07829e-07
threshold=1.0000000180025095e-35 -1.223611829989713 50.823647591318682 50.176657377344526 1.3893212065291867 2.3962322701503491 1.8602664948183849 5.7753162947632228 48.632147710994104 6.5000000000000009 51.362512165903333 2.1382747006755447 -2.5900812911797684 1.5844249842709648 -1.7503685714861446
decision_type=2 2 2 2 2 2 2 2 2 2 2 2 2 2 2
left_child=1 8 3 -3 5 6 -2 10 -1 12 11 -6 13 -10 -14
right_child=4 2 -4 -5 7 -7 -8 -9 9 -11 -12 -13 14 -15 -16
leaf_value=0.011807952817897694 -0.003905703290829524 0.0050900462682671645 0.013001755615909898 -0.012604556211273141 -0.016596043814444884 -0.0011551931568135735 -0.015695593581106601 -0.012103945841562165 0.01490696233913256 0.01530457769124002 -0.016722127336174782 -0.016557260782254793 0.014907039717942612 0.014928309881414114 0.014904978046719156
leaf_weight=5.8437741547822979 4.9591328650712949 5.5660063177347165 4.7877143025398246 4.9407918453216553 5.2684983760118547 5.4275941103696814 5.1595330089330673 5.1722409874200812 4.6371772885322624 6.1000949889421454 4.8078099489212027 8.8500800132751447 5.9621174782514608 4.6440185010433197 4.4157488495111412
leaf_count=26 20 23 20 20 22 22 21 21 21 27 20 37 27 21 20
internal_value=0 0.0103164 0.00185056 -0.00323079 -0.0121981 -0.00685829 -0.0099174 -0.0156428 0.0144135 0.0150046 -0.0166099 -0.0165717 0.0149116 0.0149176 0.0149062
internal_weight=0 46.8974 15.2945 10.5068 39.6449 15.5463 10.1187 24.0986 31.6029 25.7592 18.9264 14.1186 19.6591 9.2812 10.3779
internal_count=368 205 63 43 163 63 41 100 142 116 79 59 89 42 47
is_linear=0
shrinkage=0.01


Tree=33
num_leaves=16
num_cat=0
split_feature=4 4 6 9 4 8 8 5 9 0 9 4 4 8 4
split_gain=107.023 16.0811 8.51208 8.03093 7.21272 2.65996 3.44973 0.821223 0.484658 0.00687977 0.00077165 4.72671e-05 6.17578e-06 1.01114e-05 1.03119e-07
threshold=1.0000000180025095e-35 -1.223611829989713 50.823647591318682 50.176657377344526 1.3893212065291867 2.3962322701503491 1.8602664948183849 5.7753162947632228 48.632147710994104 6.5000000000000009 51.362512165903333 2.1382747006755447 -2.5900812911797684 1.5844249842709648 -1.7503685714861446
decision_type=2 2 2 2 2 2 2 2 2 2 2 2 2 2 2
left_child=1 8 3 -3 5 6 -2 10 -1 12 11 -6 13 -10 -14
right_child=4 2 -4 -5 7 -7 -8 -9 9 -11 -12 -13 14 -15 -16
leaf_value=0.011733964403271386 -0.0038667563971022151 0.0050428407379182029 0.012901442909377505 -0.012475624581724232 -0.016487482070954459 -0.0011436872841940487 -0.015548781548102851 -0.01200052298319477 0.01483435678199568 0.015224238170596484 -0.016610656206550851 -0.016449584242910879 0.014834433115832237 0.014855285809196862 0.014832411786772944
leaf_weight=5.8219255954027203 4.9589920341968519 5.5619487017393094 4.7767458707094184 4.9419288635253906 5.2502482086420121 5.4273764640092841 5.1561832576990128 5.1646861881017676 4.6133940815925651 6.0711081475019446 4.7917539030313483 8.8190861940383893 5.9315392225980794 4.6202975958585739 4.3930925875902123
leaf_count=26 20 23 20 20 22 22 21 21 21 27 20 37 27 21 20
internal_value=0 0.0102497 0.00183378 -0.00319935 -0.0120996 -0.00679134 -0.00982164 -0.0155336 0.0143385 0.0149302 -0.0165011 -0.0164637 0.0148389 0.0148448 0.0148336
internal_weight=0 46.732 15.2806 10.5039 39.5683 15.5426 10.1152 24.0258 31.4514 25.6294 18.8611 14.0693 19.5583 9.23369 10.3246
internal_count=368 205 63 43 163 63 41 100 142 116 79 59 89 42 47
is_linear=0
shrinkage=0.01


Tree=34
num_leaves=15
num_cat=0
split_feature=4 4 0 0 7 5 6 1 4 4 7 1 0 5
split_gain=105.193 11.4411 11.264 8.35528 5.20616 2.95928 0.402316 0.127462 0.0447703 0.00619731 0.000260024 0.000155413 9.91703e-06 5.07262e-09
threshold=-0.19174476285584691 0.92182897988295887 8.5000000000000018 17.500000000000004 50.823647591318682 6.105305232654664 51.425959138411422 5.5000000000000009 1.73288794904419 -1.5173652310257715 49.198282046273853 4.5000000000000009 4.5000000000000009 2.0383184985076794
decision_type=2 2 2 2 2 2 2 2 2 2 2 2 2 2
left_child=2 4 7 -4 -2 6 8 9 -3 10 -1 -10 13 -12
right_child=1 5 3 -5 -6 -7 -8 -9 11 -11 12 -13 -14 -15
leaf_value=0.01485454179692733 -0.0078666331950024895 -0.017487940986420373 -0.004673359211184917 0.012095696282424896 0.0048682392747652703 -0.0079919381563653587 -0.013815922281675767 0.013212461697075342 -0.016342498660198313 0.015192939650713054 0.014762851890412154 -0.01641581438621063 0.014780253683949205 0.014763302861208369
leaf_weight=4.6194052547216478 9.1418330222368223 5.1014239042997458 6.426173657178877 5.5266514718532562 4.9474992603063574 5.9115542769432059 6.7121906429529181 5.7561114877462378 7.361818313598631 4.7020284533500698 5.4634448140859586 4.7612455189228058 5.0327242314815512 4.589447870850563
leaf_count=21 37 21 26 24 20 24 28 26 31 21 25 20 23 21
internal_value=0 -0.010822 0.0112955 0.00308018 -0.00339476 -0.0143279 -0.0158927 0.014551 -0.016702 0.0148667 0.0147889 -0.0163713 0.0147688 0.0147631
internal_weight=0 43.9376 42.116 11.9528 14.0893 29.8482 23.9367 30.1632 17.2245 24.4071 19.705 12.1231 15.0856 10.0529
internal_count=368 181 187 50 57 124 100 137 72 111 90 51 69 46
is_linear=0
shrinkage=0.01


Tree=35
num_leaves=16
num_cat=0
split_feature=4 4 6 9 4 8 8 5 0 6 9 4 0 4 4
split_gain=103.436 15.7224 8.35486 7.86461 7.0833 2.61521 3.36387 0.80668 0.487592 0.00160589 0.000771871 3.99538e-05 9.6765e-06 6.32683e-06 1.0421e-07
threshold=1.0000000180025095e-35 -1.223611829989713 50.823647591318682 50.176657377344526 1.3893212065291867 2.3962322701503491 1.8602664948183849 5.7753162947632228 7.5000000000000009 48.663607321941022 51.362512165903333 2.1382747006755447 5.5000000000000009 -2.5900812911797684 -1.9036192051501628
decision_type=2 2 2 2 2 2 2 2 2 2 2 2 2 2 2
left_child=1 8 3 -3 5 6 -2 10 9 -1 11 -6 13 -11 -15
right_child=4 2 -4 -5 7 -7 -8 -9 -10 12 -12 -13 -14 14 -16
leaf_value=0.014899728234233831 -0.0037797899789064229 0.0049835080292239802 0.012791757105510868 -0.012362657753181997 -0.016278498973377402 -0.0010522766695546376 -0.015322309002779533 -0.011825342043588387 0.011323212414646231 0.014704723799410613 -0.0164040347029587 -0.016243529704493668 0.014714899808033619 0.01469351256070249 0.014691349267976357
leaf_weight=5.0761842876672807 4.9557206779718381 5.5518082529306394 4.759094461798667 4.9391216784715652 5.2124250680208268 5.4238605648279181 5.1473678052425385 5.1505823880434027 4.9693570733070365 7.8328617513179859 4.7596520185470572 8.7552990317344648 4.3549361675977698 4.3478717505931925 4.5645045191049469
leaf_count=23 20 23 20 20 22 22 21 21 22 36 20 37 20 20 21
internal_value=0 0.0101215 0.00180223 -0.00318305 -0.0119112 -0.0066535 -0.00966053 -0.0153301 0.0141949 0.01474 -0.0162941 -0.0162566 0.0147016 0.0146982 0.0146924
internal_weight=0 46.3957 15.25 10.4909 39.4049 15.5269 10.1031 23.878 31.1457 26.1764 18.7274 13.9677 21.1002 16.7452 8.91238
internal_count=368 205 63 43 163 63 41 100 142 120 79 59 97 77 41
is_linear=0
shrinkage=0.01


Tree=36
num_leaves=15
num_cat=0
split_feature=4 4 0 7 1 5 0 6 4 4 6 1 0 4
split_gain=101.68 11.1681 11.1218 5.09344 4.80984 2.91863 1.06406 0.399679 0.0448103 0.00436874 0.00143124 0.00015361 6.305e-06 3.89891e-06
threshold=-0.19174476285584691 0.92182897988295887 9.5000000000000018 50.823647591318682 3.5000000000000004 6.105305232654664 7.5000000000000009 51.425959138411422 1.73288794904419 -1.5985940129165161 48.663607321941022 4.5000000000000009 4.5000000000000009 -2.5900812911797684
decision_type=2 2 2 2 2 2 2 2 2 2 2 2 2 2
left_child=2 3 6 -2 -4 7 9 8 -3 10 -1 -10 13 -12
right_child=1 5 4 -5 -6 -7 -8 -9 11 -11 12 -13 -14 -15
leaf_value=0.014828177181072173 -0.0077402633154615777 -0.017288110597892353 0.0087294024905754369 0.0048580745269460202 -0.0053426121584708242 -0.0078327563306852428 0.0094435960459924168 -0.013614836807766767 -0.016139090500695227 0.015017961061974354 0.014636151584716364 -0.016212249747367975 0.014643341920071273 0.014624995959983645
leaf_weight=4.8308599442243603 9.1378164142370206 5.0768399089574912 4.9251832962036115 4.9461421966552725 4.7924198061227798 5.8992531150579444 4.416015848517417 6.6729110032320014 7.3064690977334958 4.4211644977331188 6.4926599711179769 4.7266112715005875 5.8466731160879126 6.0544943213462812
leaf_count=22 37 21 21 20 20 24 19 28 31 20 30 20 27 28
internal_value=0 -0.0106493 0.0111613 -0.00331586 0.00178952 -0.0141289 0.0140017 -0.0156907 -0.0165002 0.0147298 0.014675 -0.0161678 0.0146348 0.0146308
internal_weight=0 43.766 41.7795 14.084 9.7176 29.6821 32.0619 23.7828 17.1099 27.6459 23.2247 12.0331 18.3938 12.5472
internal_count=368 181 187 57 41 124 146 100 72 127 107 51 85 58
is_linear=0
shrinkage=0.01


Tree=37
num_leaves=16
num_cat=0
split_feature=4 4 6 9 4 8 8 5 9 0 9 4 4 8 4
split_gain=99.9839 15.4304 8.17981 7.72803 6.96132 2.57198 3.28185 0.793656 0.490592 0.00811286 0.000770553 3.36583e-05 7.35618e-06 1.08007e-05 3.44386e-07
threshold=1.0000000180025095e-35 -1.223611829989713 50.823647591318682 50.176657377344526 1.3893212065291867 2.3962322701503491 1.8602664948183849 5.7753162947632228 48.632147710994104 6.5000000000000009 51.362512165903333 2.1382747006755447 -2.5900812911797684 1.5844249842709648 -1.7503685714861446
decision_type=2 2 2 2 2 2 2 2 2 2 2 2 2 2 2
left_child=1 8 3 -3 5 6 -2 10 -1 12 11 -6 13 -10 -14
right_child=4 2 -4 -5 7 -7 -8 -9 9 -11 -12 -13 14 -15 -16
leaf_value=0.011417493075711264 -0.0036949136559537295 0.0049287033881874132 0.012656437450216964 -0.012274668693509584 -0.016078757833531278 -0.00096309704308876725 -0.015103577432476705 -0.011655022913102399 0.014557636625372301 0.014984094304120812 -0.016206426339885387 -0.0160465386936628 0.014557749160930413 0.014579497107019546 0.01455401552652561
leaf_weight=5.7200566381216076 4.9520559757947904 5.5435894429683668 4.7399519383907309 4.9364234358072281 5.1727614104747834 5.4201227128505698 5.137113481760025 5.1356749683618537 4.5162425339222008 5.9753150045871726 4.7259438633918753 8.6885109543800336 5.8066510707140004 4.5242791026830673 4.2999038100242561
leaf_count=26 20 23 20 20 22 22 21 21 21 27 20 37 27 21 20
internal_value=0 0.00999479 0.00175563 -0.00317464 -0.0117288 -0.00651908 -0.00950388 -0.0151347 0.0140606 0.0146624 -0.0160962 -0.0160586 0.014562 0.0145686 0.0145562
internal_weight=0 46.0624 15.22 10.48 39.2322 15.5093 10.0892 23.7229 30.8424 25.1224 18.5872 13.8613 19.1471 9.04052 10.1066
internal_count=368 205 63 43 163 63 41 100 142 116 79 59 89 42 47
is_linear=0
shrinkage=0.01


Tree=38
num_leaves=16
num_cat=0
split_feature=4 0 4 7 1 8 5 0 9 4 4 6 8 0 4
split_gain=98.2928 10.9573 10.9189 4.95819 4.70754 3.77405 1.49497 1.06399 0.125127 0.00491332 0.00242346 0.00154455 8.76574e-05 5.28407e-06 3.57425e-06
threshold=-0.19174476285584691 9.5000000000000018 1.1969575557837298 49.921823881447388 3.5000000000000004 1.8243905864775238 6.1710085988831365 7.5000000000000009 51.362512165903333 -1.5985940129165161 1.9533214991233898 48.663607321941022 1.9858130855378819 4.5000000000000009 -2.5900812911797684
decision_type=2 2 2 2 2 2 2 2 2 2 2 2 2 2 2
left_child=1 7 3 -2 -3 -5 8 9 10 11 -4 -1 -12 14 -13
right_child=2 4 6 5 -6 -7 -8 -9 -10 -11 12 13 -14 -15 -16
leaf_value=0.014703108398940838 -0.010775762306878283 0.0086080468076516065 -0.016237107141090047 -0.0059924304567958208 -0.005332742667735829 0.0062065259096283363 -0.0095129463560545933 0.0093002862044824115 -0.014271676275862722 0.014908610140228628 -0.015949598777093611 0.01450271905224563 -0.016005833298942354 0.014509110354402397 0.014491979622589539
leaf_weight=4.7861175984144273 6.9027887284755733 4.902541443705557 4.9614573419094183 4.9877924621105176 4.7878223955631256 5.1594023704528809 4.910920947790145 4.3934880644083014 5.1927112042903891 4.383064508438113 6.7824359983205778 6.4223620146513056 4.6878035217523575 5.7831978350877753 5.9888079315423912
leaf_count=22 28 21 21 20 20 21 20 19 22 20 29 30 20 27 28
internal_value=0 0.0110281 -0.0104816 -0.00423753 0.00172017 0.000210202 -0.0144937 0.0138683 -0.0156248 0.0146018 -0.0160525 0.0145433 -0.0159726 0.0145012 0.0144975
internal_weight=0 41.4474 43.5853 17.05 9.69036 10.1472 26.5353 31.757 21.6244 27.3635 16.4317 22.9805 11.4702 18.1944 12.4112
internal_count=368 187 181 69 41 41 112 146 92 127 70 107 49 85 58
is_linear=0
shrinkage=0.01


Tree=39
num_leaves=15
num_cat=0
split_feature=4 0 6 9 4 8 8 5 4 6 9 4 0 4
split_gain=96.724 15.1553 10.3147 9.31409 6.81149 2.52794 3.23475 0.787282 0.0112596 0.00147835 0.000817546 2.91745e-05 5.05899e-06 3.42203e-06
threshold=1.0000000180025095e-35 7.5000000000000009 50.953551690887558 50.644160629757302 1.3893212065291867 2.3962322701503491 1.8602664948183849 5.7753162947632228 -1.5985940129165161 48.663607321941022 51.362512165903333 2.1382747006755447 4.5000000000000009 -2.5900812911797684
decision_type=2 2 2 2 2 2 2 2 2 2 2 2 2 2
left_child=1 8 3 -3 5 6 -2 10 9 -1 11 -6 13 -11
right_child=4 2 -4 -5 7 -7 -8 -9 -10 12 -12 -13 -14 -15
leaf_value=0.014634465308878188 -0.0036007389107013238 0.0045714214769089299 0.01446996393741168 -0.012967454586378895 -0.015886120238807738 -0.00089403299418389982 -0.014937265773075182 -0.011473231766890314 0.015019527812049398 0.014437888952202313 -0.016020123768928512 -0.015856001951325398 0.014444159974326128 0.014427351501466791
leaf_weight=4.7606091946363511 4.9481947869062406 8.0414408445358294 5.362136408686637 4.8564970791339865 5.1310468763113084 5.4138090908527365 5.1227787882089615 5.1184285879135123 4.6080880463123313 6.3868660628795686 4.6913191229104987 8.6181702464818937 5.7512709051370612 5.9556450545787767
leaf_count=22 20 34 23 20 22 22 21 21 21 30 20 37 27 28
internal_value=0 0.00987399 0.00281348 -0.00203254 -0.0115568 -0.00640484 -0.00936726 -0.014943 0.0145686 0.0144777 -0.0159061 -0.0158672 0.0144364 0.0144328
internal_weight=0 45.7226 18.2601 12.8979 39.0437 15.4848 10.071 23.559 27.4625 22.8544 18.4405 13.7492 18.0938 12.3425
internal_count=368 205 77 54 163 63 41 100 128 107 79 59 85 58
is_linear=0
shrinkage=0.01


Tree=40
num_leaves=16
num_cat=0
split_feature=4 4 6 9 4 7 9 5 9 0 9 4 4 8 4
split_gain=95.0921 15.0279 7.88843 7.46401 6.74581 2.49773 1.09535 0.78578 0.496365 0.0101576 0.00077934 2.78196e-05 7.77113e-06 9.63951e-06 9.28095e-07
threshold=1.0000000180025095e-35 -1.223611829989713 50.823647591318682 50.176657377344526 1.3893212065291867 50.823647591318682 50.110329199709959 5.7753162947632228 48.632147710994104 6.5000000000000009 51.362512165903333 2.1382747006755447 -2.5900812911797684 1.5844249842709648 -1.7503685714861446
decision_type=2 2 2 2 2 2 2 2 2 2 2 2 2 2 2
left_child=1 8 3 -3 5 6 -2 10 -1 12 11 -6 13 -10 -14
right_child=4 2 -4 -5 7 -7 -8 -9 9 -11 -12 -13 14 -15 -16
leaf_value=0.011194130517972618 -0.0060669357034449783 0.0048183715823061531 0.012432060538135488 -0.01210803108199578 -0.015793353631072322 -0.0010646425615155103 -0.012752736339780758 -0.011379131437326178 0.014363627100412875 0.014842361178762977 -0.015924452014408074 -0.015763881437657855 0.014363810029100988 0.014384451459836798 0.014357629088332611
leaf_weight=5.6430046409368542 4.9145545661449415 5.5283851176500303 4.7065922915935507 4.9270411878824234 5.1096805781126085 5.6759697049856177 4.8873524367809296 5.1091943532228461 4.4415921568870598 5.9131272733211508 4.6724036931991568 8.5820285677909833 5.7107125967741048 4.4498489052057266 4.227800831198687
leaf_count=26 20 23 20 20 22 23 20 21 21 27 20 37 27 21 20
internal_value=0 0.00981296 0.00168142 -0.00315807 -0.0114686 -0.00634365 -0.00940056 -0.0148479 0.0138704 0.0144808 -0.0158129 -0.0157749 0.0143673 0.014374 0.0143612
internal_weight=0 45.5481 15.162 10.4554 38.9512 15.4779 9.80191 23.4733 30.3861 24.7431 18.3641 13.6917 18.83 8.89144 9.93851
internal_count=368 205 63 43 163 63 40 100 142 116 79 59 89 42 47
is_linear=0
shrinkage=0.01


Tree=41
num_leaves=15
num_cat=0
split_feature=4 0 4 0 7 5 6 1 4 4 5 1 1 1
split_gain=93.4962 10.6958 10.5582 8.05215 4.90357 2.86068 0.401578 0.132424 0.0499082 0.00901819 0.000254749 0.000169747 5.45094e-06 6.44173e-07
threshold=-0.19174476285584691 8.5000000000000018 0.92182897988295887 17.500000000000004 50.823647591318682 6.105305232654664 51.425959138411422 5.5000000000000009 1.73288794904419 -1.5173652310257715 2.441637524943375 4.5000000000000009 1.5000000000000002 3.5000000000000004
decision_type=2 2 2 2 2 2 2 2 2 2 2 2 2 2
left_child=1 7 4 -3 -2 6 8 9 -4 10 12 -10 -1 -14
right_child=2 3 5 -5 -6 -7 -8 -9 11 -11 -12 -13 13 -15
leaf_value=0.014315559106826477 -0.0074695263794699422 -0.0047851008333744914 -0.016889581613689982 0.011768363710614991 0.0049013721995529872 -0.0074213577288256794 -0.013137091371355689 0.012708180228822237 -0.01566800932286502 0.014822216280590158 0.014393639628676678 -0.0157456908838382 0.014305363295372223 0.014300144407823323
leaf_weight=5.0539144426584306 9.1159577965736371 6.396216154098509 5.0141904056072333 5.4359465390443802 4.9407236576080313 5.8612225651741019 6.5636098682880393 5.5639865845441809 7.1575518697500211 4.5721682459116009 4.4523157328367224 4.6342771202325821 4.6284266859292966 4.8364856541156769
leaf_count=24 37 26 21 24 20 24 28 26 31 21 21 20 22 23
internal_value=0 0.0108368 -0.0102432 0.00281991 -0.00312133 -0.013668 -0.0152347 0.0140956 -0.0160539 0.0144235 0.0143275 -0.0156985 0.0143072 0.0143027
internal_weight=0 40.9395 43.2875 11.8322 14.0567 29.2309 23.3696 29.1073 16.806 23.5433 18.9711 11.7918 14.5188 9.46491
internal_count=368 187 181 50 57 124 100 137 72 111 90 51 69 45
is_linear=0
shrinkage=0.01


Tree=42
num_leaves=15
num_cat=0
split_feature=4 0 6 9 4 8 8 5 4 6 9 4 9 8
split_gain=91.9726 14.7996 10.0374 8.96078 6.64087 2.49625 3.12277 0.775646 0.0120129 0.00158963 0.000774077 2.30828e-05 4.61988e-06 3.14988e-06
threshold=1.0000000180025095e-35 7.5000000000000009 50.953551690887558 50.644160629757302 1.3893212065291867 2.3962322701503491 1.8602664948183849 5.7753162947632228 -1.5985940129165161 48.663607321941022 51.362512165903333 2.1382747006755447 51.286375798893623 2.1022077080176982
decision_type=2 2 2 2 2 2 2 2 2 2 2 2 2 2
left_child=1 8 3 -3 5 6 -2 10 9 -1 11 -6 13 -11
right_child=4 2 -4 -5 7 -7 -8 -9 -10 12 -12 -13 -14 -15
leaf_value=0.014456550026683787 -0.0034989056885510817 0.0044316977103616116 0.014272489523026337 -0.012797867082859063 -0.0156143008067357 -0.00073777062582062504 -0.014649359670974376 -0.011220648533711339 0.014856437148893176 0.01424260052160334 -0.015747075541669785 -0.015587339141166454 0.014258799263497853 0.014252318674890836
leaf_weight=4.6912130266428056 4.9429860413074476 8.0059728026390093 5.316642999649047 4.8454506397247306 5.0659672915935579 5.4063981324434272 5.10616235435009 5.0924103558063498 4.5460151582956305 7.7384582012891787 4.6351729929447165 8.508668974041937 4.189340502023696 5.8615065962076187
leaf_count=22 20 34 23 20 22 22 21 21 21 37 20 37 20 28
internal_value=0 0.00969579 0.00271632 -0.00206447 -0.0112996 -0.00621691 -0.00916466 -0.0146707 0.0143876 0.0142928 -0.0156355 -0.0155974 0.0142496 0.0142468
internal_weight=0 45.1946 18.1681 12.8514 38.7578 15.4555 10.0491 23.3022 27.0265 22.4805 18.2098 13.5746 17.7893 13.6
internal_count=368 205 77 54 163 63 41 100 128 107 79 59 85 65
is_linear=0
shrinkage=0.01


Tree=43
num_leaves=15
num_cat=0
split_feature=4 0 4 7 1 5 0 6 4 4 6 1 9 8
split_gain=90.4536 10.5263 10.3175 4.7869 4.57802 2.82901 1.03209 0.400169 0.0496404 0.0047883 0.00152264 0.00016653 4.42653e-06 3.01812e-06
threshold=-0.19174476285584691 9.5000000000000018 0.92182897988295887 50.823647591318682 3.5000000000000004 6.105305232654664 7.5000000000000009 51.425959138411422 1.73288794904419 -1.5985940129165161 48.663607321941022 4.5000000000000009 51.286375798893623 2.1022077080176982
decision_type=2 2 2 2 2 2 2 2 2 2 2 2 2 2
left_child=1 6 3 -2 -3 7 9 8 -4 10 -1 -10 13 -12
right_child=2 4 5 -5 -6 -7 -8 -9 11 -11 12 -13 -14 -15
leaf_value=0.01439258828073325 -0.0073507014574642916 0.0084155259916671322 -0.016715764328425618 0.0048760212313263777 -0.005382063470670561 -0.0072752972759205035 0.0090334638476790192 -0.012958141444444134 -0.015493550594860907 0.014597162079264243 0.014182603321945462 -0.015570828207646143 0.014198505497914786 0.014192143650935662
leaf_weight=4.6650716513395372 9.1085264980792982 4.8524218797683698 4.9849782884121039 4.9380724728107444 4.767360046505928 5.8466243594884864 4.3436886668205252 6.5187489390373221 7.0943532288074476 4.2749674618244198 7.6937070637941378 4.594623401761055 4.1651803255081168 5.8276656270027161
leaf_count=22 37 21 21 20 20 24 19 28 31 20 37 20 20 28
internal_value=0 0.010715 -0.0100884 -0.00305241 0.00157773 -0.0134918 0.0135532 -0.0150589 -0.0158802 0.0142905 0.0142319 -0.0155239 0.0141895 0.0141867
internal_weight=0 40.5901 43.0859 14.0466 9.61978 29.0393 30.9703 23.1927 16.674 26.6266 22.3516 11.689 17.6866 13.5214
internal_count=368 187 181 57 41 124 146 100 72 127 107 51 85 65
is_linear=0
shrinkage=0.01


Tree=44
num_leaves=16
num_cat=0
split_feature=4 4 6 9 4 8 8 5 9 0 9 0 4 8 4
split_gain=88.9619 14.5138 7.59933 7.23014 6.54191 2.45694 3.05122 0.76663 0.503902 0.0180195 0.000767898 2.07768e-05 9.79766e-06 3.67556e-06 5.48482e-06
threshold=1.0000000180025095e-35 -1.223611829989713 50.823647591318682 50.176657377344526 1.3893212065291867 2.3962322701503491 1.8602664948183849 5.7753162947632228 48.632147710994104 7.5000000000000009 51.362512165903333 16.500000000000004 -1.8245084580106357 1.5844249842709648 -2.5900812911797684
decision_type=2 2 2 2 2 2 2 2 2 2 2 2 2 2 2
left_child=1 8 3 -3 5 6 -2 10 -1 12 11 -6 13 -10 -15
right_child=4 2 -4 -5 7 -7 -8 -9 9 -11 -12 -13 -14 14 -16
leaf_value=0.010908194358570789 -0.0034205930265764407 0.0047074008005844768 0.012197497413000807 -0.011978515176044069 -0.01544464061548024 -0.00065585575205865602 -0.014452853123518355 -0.011066211651860105 0.014123955122654963 0.014850419103362362 -0.015577009058977043 -0.015418394137166865 0.014114580671974587 0.014143180228087152 0.014128632255218076
leaf_weight=5.5379062443971661 4.9383406192064268 5.5080867111682874 4.6646783500909796 4.9132606983184814 4.5649034529924455 5.4020074158906928 5.0917975157499313 5.0750153362750998 4.7547557353973451 4.1635789424180976 4.5967279076576224 8.8890286982059461 4.5437119454145423 4.3496617972850835 6.4115587174892372
leaf_count=26 20 23 20 20 20 22 21 21 23 19 20 39 22 21 31
internal_value=0 0.00957931 0.00158906 -0.00315936 -0.0111352 -0.00609287 -0.00902112 -0.0145 0.0136296 0.0142518 -0.0154654 -0.0154273 0.0141275 0.0141313 0.0141345
internal_weight=0 44.8472 15.086 10.4213 38.5578 15.4321 10.0301 23.1257 29.7612 24.2233 18.0507 13.4539 20.0597 15.516 10.7612
internal_count=368 205 63 43 163 63 41 100 142 116 79 59 97 75 52
is_linear=0
shrinkage=0.01


Tree=45
num_leaves=16
num_cat=0
split_feature=4 0 4 7 1 8 5 0 9 4 4 6 8 9 8
split_gain=87.496 10.3832 10.1044 4.7347 4.48174 3.81564 1.45043 1.03467 0.127279 0.00529003 0.00254265 0.00161624 0.000140681 4.09337e-06 2.7913e-06
threshold=-0.19174476285584691 9.5000000000000018 1.1969575557837298 49.921823881447388 3.5000000000000004 1.8243905864775238 6.1710085988831365 7.5000000000000009 51.362512165903333 -1.5985940129165161 1.9533214991233898 48.663607321941022 1.9671484146836657 51.286375798893623 2.1022077080176982
decision_type=2 2 2 2 2 2 2 2 2 2 2 2 2 2 2
left_child=1 7 3 -2 -3 -5 8 9 10 11 -4 -1 -12 14 -13
right_child=2 4 6 5 -6 -7 -8 -9 -10 -11 12 13 -14 -15 -16
leaf_value=0.014282847757609992 -0.010366012202128421 0.0083011725668116002 -0.015638432163427352 -0.0058542954212267677 -0.0053711899697058167 0.0064152964586455695 -0.0089483684584431428 0.0088984085355606913 -0.013626206463134906 0.01450227672027308 -0.015332867780812167 0.014065851566225687 -0.015404682671535701 0.014081234023335236 0.014075080543849365
leaf_weight=4.6186871677637162 6.8547355532646206 4.8283530622720701 4.8309635221958223 4.9778676331043226 4.7621205002069473 5.1638994663953781 4.8623337447643271 4.3200466185808173 5.0559029579162589 4.235277175903323 6.3514141887426359 7.6036185324192065 4.7810994237661362 4.1165589690208426 5.7595535963773727
leaf_count=22 28 21 21 20 20 21 20 19 22 20 28 37 21 20 28
internal_value=0 0.0105933 -0.00993648 -0.00394612 0.0015122 0.000393032 -0.0138703 0.0134344 -0.0150089 0.0141785 -0.0154468 0.0141165 -0.0153637 0.0140725 0.0140698
internal_weight=0 40.2442 42.8782 16.9965 9.59047 10.1418 25.8817 30.6537 21.0194 26.3337 15.9635 22.0984 11.1325 17.4797 13.3632
internal_count=368 187 181 69 41 41 112 146 92 127 70 107 49 85 65
is_linear=0
shrinkage=0.01


Tree=46
num_leaves=15
num_cat=0
split_feature=4 0 6 9 4 8 8 5 4 6 9 0 9 8
split_gain=86.1189 14.304 9.704 8.64198 6.41608 2.41634 3.01235 0.763534 0.012477 0.00154895 0.0008063 1.85636e-05 3.92454e-06 2.67587e-06
threshold=1.0000000180025095e-35 7.5000000000000009 50.953551690887558 50.644160629757302 1.3893212065291867 2.3962322701503491 1.8602664948183849 5.7753162947632228 -1.5985940129165161 48.663607321941022 51.362512165903333 16.500000000000004 51.286375798893623 2.1022077080176982
decision_type=2 2 2 2 2 2 2 2 2 2 2 2 2 2
left_child=1 8 3 -3 5 6 -2 10 9 -1 11 -6 13 -11
right_child=4 2 -4 -5 7 -7 -8 -9 -10 12 -12 -13 -14 -15
leaf_value=0.01422211240137944 -0.0033320842329917339 0.0043090402943930326 0.014043001045269812 -0.012639084403009799 -0.015278894378440405 -0.0005934559712180397 -0.01430579601221376 -0.010900232960173587 0.014638970168941943 0.014009062249630002 -0.015416503165196445 -0.015253968941084614 0.014024168922985971 0.014018125390295845
leaf_weight=4.5921601653099122 4.9337292611598951 7.971856355667116 5.2624728977680197 4.8324396759271622 4.5224843174219194 5.3951493501663199 5.0741935968399048 5.0551652759313574 4.4587803035974494 7.558324411511423 4.5578763782978049 8.8061031401157361 4.0920991599559775 5.7252966463565826
leaf_count=22 20 34 23 20 20 22 21 21 21 37 20 39 20 28
internal_value=0 0.00946854 0.00261111 -0.00208731 -0.0109801 -0.00598788 -0.00889595 -0.0143318 0.0141567 0.0140588 -0.0153017 -0.0152624 0.0140156 0.014013
internal_weight=0 44.4934 18.0668 12.8043 38.3447 15.4031 10.0079 22.9416 26.4267 21.9679 17.8865 13.3286 17.3757 13.2836
internal_count=368 205 77 54 163 63 41 100 128 107 79 59 85 65
is_linear=0
shrinkage=0.01


Tree=47
num_leaves=15
num_cat=0
split_feature=4 0 6 9 4 8 8 5 4 6 9 0 9 8
split_gain=84.6938 14.1684 9.54791 8.47097 6.36081 2.37209 2.96259 0.763511 0.0120122 0.00148472 0.000770027 1.77338e-05 3.76294e-06 2.5657e-06
threshold=1.0000000180025095e-35 7.5000000000000009 50.953551690887558 50.644160629757302 1.3893212065291867 2.3962322701503491 1.8602664948183849 5.7753162947632228 -1.5985940129165161 48.663607321941022 51.362512165903333 16.500000000000004 51.286375798893623 2.1022077080176982
decision_type=2 2 2 2 2 2 2 2 2 2 2 2 2 2
left_child=1 8 3 -3 5 6 -2 10 9 -1 11 -6 13 -11
right_child=4 2 -4 -5 7 -7 -8 -9 -10 12 -12 -13 -14 -15
leaf_value=0.014162490622662007 -0.0032991576561769683 0.004269714267052702 0.013955064769113566 -0.012512632574140169 -0.01519885396139075 -0.00058754325750569152 -0.014186706019954807 -0.010813899977278232 0.014572990846397453 0.013953290726082163 -0.015333643420355921 -0.015174433652421101 0.01396812774890205 0.013962192125929623
leaf_weight=4.5655110329389634 4.9331422299146634 7.964863598346712 5.2427762597799292 4.8324627429246902 4.500945642590529 5.3949507921934119 5.0656635165214539 5.0446211993694297 4.4343004971742621 7.5128777474164981 4.5367869585752478 8.7639481574296934 4.0675548315048209 5.6909224987030029
leaf_count=22 20 34 23 20 20 22 21 21 21 37 20 39 20 28
internal_value=0 0.00941267 0.00258891 -0.00206755 -0.0109002 -0.00593163 -0.00881508 -0.014248 0.0140985 0.0140021 -0.0152212 -0.0151827 0.0139597 0.0139571
internal_weight=0 44.3113 18.0401 12.7973 38.2401 15.3938 9.99881 22.8463 26.2712 21.8369 17.8017 13.2649 17.2714 13.2038
internal_count=368 205 77 54 163 63 41 100 128 107 79 59 85 65
is_linear=0
shrinkage=0.01


Tree=48
num_leaves=14
num_cat=0
split_feature=4 4 6 6 5 4 9 0 9 8 4 7 7
split_gain=83.3656 17.6313 11.4818 12.8539 4.96197 0.880786 0.515491 0.0231914 0.000610876 8.40645e-05 1.27181e-05 3.25272e-06 3.69441e-06
threshold=0.37795920418352741 -1.223611829989713 50.953551690887558 50.24756482035847 6.105305232654664 1.3893212065291867 48.632147710994104 7.5000000000000009 51.362512165903333 1.9523692793363978 -1.7503685714861446 51.425959138411422 49.921823881447388
decision_type=2 2 2 2 2 2 2 2 2 2 2 2 2
left_child=1 6 3 -3 5 -2 -1 10 9 -7 11 12 -8
right_child=4 2 -4 -5 -6 8 7 -9 -10 -11 -12 -13 -14
leaf_value=0.010628759185436217 -0.011251892817589841 0.0035705722473754853 0.012174645980610426 -0.01717515211210667 -0.004822226246294802 -0.015095432042131688 0.013910372754468809 0.014726444853689414 -0.015252486078509478 -0.015145210858390408 0.013885881809442066 0.013913159840601898 0.013898445646472458
leaf_weight=5.4294592142105129 8.5003749281168002 7.6644198745489138 6.1379593312740317 4.8934638649225235 7.7572196125984183 7.3790640383958834 4.041722118854528 4.1225576102733603 4.5154247283935538 6.279562696814537 4.2321334630250922 4.0429669171571723 7.2654181271791458
leaf_count=26 35 32 26 20 32 33 20 19 20 28 21 20 36
internal_value=0 0.0085445 0.000965341 -0.00451347 -0.0118617 -0.0139089 0.0134081 0.0140447 -0.0151517 -0.0151183 0.0139012 0.0139055 0.0139027
internal_weight=0 47.8301 18.6958 12.5579 34.4316 26.6744 29.1343 23.7048 18.1741 13.6586 19.5822 15.3501 11.3071
internal_count=368 220 78 52 148 116 142 116 81 61 97 76 56
is_linear=0
shrinkage=0.01


Tree=49
num_leaves=15
num_cat=0
split_feature=4 0 6 9 4 8 8 5 4 6 9 0 9 8
split_gain=82.0238 13.9333 9.27451 8.14626 6.26428 2.33516 2.89376 0.7507 0.0122221 0.00157028 0.000703424 1.64351e-05 3.47524e-06 2.38035e-06
threshold=1.0000000180025095e-35 7.5000000000000009 50.953551690887558 50.644160629757302 1.3893212065291867 2.3962322701503491 1.8602664948183849 5.7753162947632228 -1.5985940129165161 48.663607321941022 51.362512165903333 16.500000000000004 51.286375798893623 2.1022077080176982
decision_type=2 2 2 2 2 2 2 2 2 2 2 2 2 2
left_child=1 8 3 -3 5 6 -2 10 9 -1 11 -6 13 -11
right_child=4 2 -4 -5 7 -7 -8 -9 -10 12 -12 -13 -14 -15
leaf_value=0.014060567249344222 -0.0032364108646768235 0.0041758397480433466 0.013790988916528173 -0.012301864288955522 -0.015043648235920404 -0.00052077023298082044 -0.014008272953935062 -0.010684378612878447 0.014473474585432845 0.01384468814468736 -0.015172982896960924 -0.015020023632686187 0.013859042463638335 0.013853314523533283
leaf_weight=4.5185211747884813 4.9277785867452604 7.9429567158222216 5.2038305252790442 4.8215537220239639 4.457137927412993 5.393227905035018 5.0493549406528473 5.0276484340429297 4.3929855078458777 7.4215671271085757 4.4938019961118689 8.6781358718872053 4.0182524919509879 5.6218773275613785
leaf_count=22 20 34 23 20 20 22 21 21 21 37 20 39 20 28
internal_value=0 0.00930908 0.00253893 -0.0020483 -0.0107499 -0.00582222 -0.00868797 -0.0140929 0.0139927 0.0138948 -0.015065 -0.015028 0.0138509 0.0138484
internal_weight=0 43.9415 17.9683 12.7645 38.0271 15.3704 9.97713 22.6567 25.9732 21.5802 17.6291 13.1353 17.0617 13.0434
internal_count=368 205 77 54 163 63 41 100 128 107 79 59 85 65
is_linear=0
shrinkage=0.01


end of trees

feature_importances:
capacity_margin_lag24=232
hour=117
region_stress_ratio_roll48=98
lmp_volatility_roll24=76
lmp_volatility_lag6=64
region_stress_ratio_lag48=62
region_stress_ratio_lag24=42
day_of_week=27

parameters:
[boosting: gbdt]
[objective: binary]
[metric: binary_logloss]
[tree_learner: serial]
[device_type: cpu]
[data_sample_strategy: bagging]
[data: ]
[valid: ]
[num_iterations: 50]
[learning_rate: 0.01]
[num_leaves: 31]
[num_threads: 12]
[seed: 42]
[deterministic: 0]
[force_col_wise: 1]
[force_row_wise: 0]
[histogram_pool_size: -1]
[max_depth: 10]
[min_data_in_leaf: 20]
[min_sum_hessian_in_leaf: 0.001]
[bagging_fraction: 1]
[pos_bagging_fraction: 1]
[neg_bagging_fraction: 1]
[bagging_freq: 0]
[bagging_seed: 400]
[feature_fraction: 1]
[feature_fraction_bynode: 1]
[feature_fraction_seed: 30056]
[extra_trees: 0]
[extra_seed: 12879]
[early_stopping_round: 0]
[early_stopping_min_delta: 0]
[first_metric_only: 0]
[max_delta_step: 0]
[lambda_l1: 0]
[lambda_l2: 0]
[linear_lambda: 0]
[min_gain_to_split: 0]
[drop_rate: 0.1]
[max_drop: 50]
[skip_drop: 0.5]
[xgboost_dart_mode: 0]
[uniform_drop: 0]
[drop_seed: 17869]
[top_rate: 0.2]
[other_rate: 0.1]
[min_data_per_group: 100]
[max_cat_threshold: 32]
[cat_l2: 10]
[cat_smooth: 10]
[max_cat_to_onehot: 4]
[top_k: 20]
[monotone_constraints: ]
[monotone_constraints_method: basic]
[monotone_penalty: 0]
[feature_contri: ]
[forcedsplits_filename: ]
[refit_decay_rate: 0.9]
[cegb_tradeoff: 1]
[cegb_penalty_split: 0]
[cegb_penalty_feature_lazy: ]
[cegb_penalty_feature_coupled: ]
[path_smooth: 0]
[interaction_constraints: ]
[verbosity: 1]
[saved_feature_importance_type: 0]
[use_quantized_grad: 0]
[num_grad_quant_bins: 4]
[quant_train_renew_leaf: 0]
[stochastic_rounding: 1]
[linear_tree: 0]
[max_bin: 255]
[max_bin_by_feature: ]
[min_data_in_bin: 3]
[bin_construct_sample_cnt: 200000]
[data_random_seed: 175]
[is_enable_sparse: 1]
[enable_bundle: 1]
[use_missing: 1]
[zero_as_missing: 0]
[feature_pre_filter: 1]
[pre_partition: 0]
[two_round: 0]
[header: 0]
[label_column: ]
[weight_column: ]
[group_column: ]
[ignore_column: ]
[categorical_feature: ]
[forcedbins_filename: ]
[precise_float_parser: 0]
[parser_config_file: ]
[objective_seed: 16083]
[num_class: 1]
[is_unbalance: 0]
[scale_pos_weight: 1]
[sigmoid: 1]
[boost_from_average: 1]
[reg_sqrt: 0]
[alpha: 0.9]
[fair_c: 1]
[poisson_max_delta_step: 0.7]
[tweedie_variance_power: 1.5]
[lambdarank_truncation_level: 30]
[lambdarank_norm: 1]
[label_gain: ]
[lambdarank_position_bias_regularization: 0]
[eval_at: ]
[multi_error_top_k: 1]
[auc_mu_weights: ]
[num_machines: 1]
[local_listen_port: 12400]
[time_out: 120]
[machine_list_filename: ]
[machines: ]
[gpu_platform_id: -1]
[gpu_device_id: -1]
[gpu_use_dp: 0]
[num_gpu: 1]

end of parameters

pandas_categorical:[]
